<?xml version="1.0"?>
<opencv_storage>
<cascade>
  <stageType>BOOST</stageType>
  <featureType>HAAR</featureType>
  <height>23</height>
  <width>30</width>
  <stageParams>
    <boostType>GAB</boostType>
    <minHitRate>9.9900001287460327e-01</minHitRate>
    <maxFalseAlarm>5.0000000000000000e-01</maxFalseAlarm>
    <weightTrimRate>9.4999999999999996e-01</weightTrimRate>
    <maxDepth>1</maxDepth>
    <maxWeakCount>100</maxWeakCount></stageParams>
  <featureParams>
    <maxCatCount>0</maxCatCount>
    <featSize>1</featSize>
    <mode>ALL</mode></featureParams>
  <stageNum>20</stageNum>
  <stages>
    <!-- stage 0 -->
    <_>
      <maxWeakCount>3</maxWeakCount>
      <stageThreshold>-7.7756154537200928e-01</stageThreshold>
      <weakClassifiers>
        <_>
          <internalNodes>
            0 -1 118 -2.2062707692384720e-02</internalNodes>
          <leafValues>
            9.3545031547546387e-01 -7.3864692449569702e-01</leafValues></_>
        <_>
          <internalNodes>
            0 -1 155 1.8053695384878665e-04</internalNodes>
          <leafValues>
            -7.8764164447784424e-01 7.6429599523544312e-01</leafValues></_>
        <_>
          <internalNodes>
            0 -1 171 -2.8575345641002059e-04</internalNodes>
          <leafValues>
            7.4872702360153198e-01 -7.1161156892776489e-01</leafValues></_></weakClassifiers></_>
    <!-- stage 1 -->
    <_>
      <maxWeakCount>4</maxWeakCount>
      <stageThreshold>-1.5092097520828247e+00</stageThreshold>
      <weakClassifiers>
        <_>
          <internalNodes>
            0 -1 7 5.4602682590484619e-02</internalNodes>
          <leafValues>
            -6.9520223140716553e-01 8.9778006076812744e-01</leafValues></_>
        <_>
          <internalNodes>
            0 -1 124 3.3685055677779019e-04</internalNodes>
          <leafValues>
            -7.5393956899642944e-01 6.9904088973999023e-01</leafValues></_>
        <_>
          <internalNodes>
            0 -1 103 4.6396497637033463e-03</internalNodes>
          <leafValues>
            -5.5267786979675293e-01 7.1703416109085083e-01</leafValues></_>
        <_>
          <internalNodes>
            0 -1 121 -2.0308110862970352e-02</internalNodes>
          <leafValues>
            4.9260991811752319e-01 -7.9811853170394897e-01</leafValues></_></weakClassifiers></_>
    <!-- stage 2 -->
    <_>
      <maxWeakCount>7</maxWeakCount>
      <stageThreshold>-1.6826184988021851e+00</stageThreshold>
      <weakClassifiers>
        <_>
          <internalNodes>
            0 -1 10 5.1912959665060043e-02</internalNodes>
          <leafValues>
            -5.7045841217041016e-01 9.1767287254333496e-01</leafValues></_>
        <_>
          <internalNodes>
            0 -1 125 1.7215320258401334e-04</internalNodes>
          <leafValues>
            -7.6557940244674683e-01 6.8688327074050903e-01</leafValues></_>
        <_>
          <internalNodes>
            0 -1 235 -2.4778480292297900e-04</internalNodes>
          <leafValues>
            6.7877244949340820e-01 -5.5106753110885620e-01</leafValues></_>
        <_>
          <internalNodes>
            0 -1 142 -3.1182591337710619e-03</internalNodes>
          <leafValues>
            5.8972966670989990e-01 -5.0215077400207520e-01</leafValues></_>
        <_>
          <internalNodes>
            0 -1 90 6.9733299314975739e-03</internalNodes>
          <leafValues>
            -4.5358881354331970e-01 7.2322702407836914e-01</leafValues></_>
        <_>
          <internalNodes>
            0 -1 182 5.1782920490950346e-04</internalNodes>
          <leafValues>
            -3.5129791498184204e-01 7.7729481458663940e-01</leafValues></_>
        <_>
          <internalNodes>
            0 -1 242 -2.9118921607732773e-02</internalNodes>
          <leafValues>
            -6.7107027769088745e-01 4.1964396834373474e-01</leafValues></_></weakClassifiers></_>
    <!-- stage 3 -->
    <_>
      <maxWeakCount>6</maxWeakCount>
      <stageThreshold>-2.0341775417327881e+00</stageThreshold>
      <weakClassifiers>
        <_>
          <internalNodes>
            0 -1 127 1.7776788445189595e-04</internalNodes>
          <leafValues>
            -8.1603151559829712e-01 7.2398394346237183e-01</leafValues></_>
        <_>
          <internalNodes>
            0 -1 8 6.7200914025306702e-02</internalNodes>
          <leafValues>
            -5.5129271745681763e-01 7.5596177577972412e-01</leafValues></_>
        <_>
          <internalNodes>
            0 -1 119 1.6132851305883378e-04</internalNodes>
          <leafValues>
            -6.6898167133331299e-01 5.3894579410552979e-01</leafValues></_>
        <_>
          <internalNodes>
            0 -1 64 3.2495727646164596e-04</internalNodes>
          <leafValues>
            -6.2285667657852173e-01 6.0037922859191895e-01</leafValues></_>
        <_>
          <internalNodes>
            0 -1 229 -3.8851203862577677e-04</internalNodes>
          <leafValues>
            6.2160950899124146e-01 -4.7745448350906372e-01</leafValues></_>
        <_>
          <internalNodes>
            0 -1 175 3.7945723161101341e-03</internalNodes>
          <leafValues>
            -4.3757599592208862e-01 7.0952421426773071e-01</leafValues></_></weakClassifiers></_>
    <!-- stage 4 -->
    <_>
      <maxWeakCount>7</maxWeakCount>
      <stageThreshold>-1.4701826572418213e+00</stageThreshold>
      <weakClassifiers>
        <_>
          <internalNodes>
            0 -1 134 4.1934696491807699e-04</internalNodes>
          <leafValues>
            -7.7204883098602295e-01 6.9332742691040039e-01</leafValues></_>
        <_>
          <internalNodes>
            0 -1 85 4.9289911985397339e-03</internalNodes>
          <leafValues>
            -6.1246472597122192e-01 6.9766771793365479e-01</leafValues></_>
        <_>
          <internalNodes>
            0 -1 136 1.9392701797187328e-03</internalNodes>
          <leafValues>
            -5.5173397064208984e-01 5.8166301250457764e-01</leafValues></_>
        <_>
          <internalNodes>
            0 -1 143 1.6287734615616500e-04</internalNodes>
          <leafValues>
            -6.3821911811828613e-01 5.1172196865081787e-01</leafValues></_>
        <_>
          <internalNodes>
            0 -1 194 4.6461179852485657e-02</internalNodes>
          <leafValues>
            -4.1639196872711182e-01 5.9310585260391235e-01</leafValues></_>
        <_>
          <internalNodes>
            0 -1 203 -5.8258622884750366e-02</internalNodes>
          <leafValues>
            7.4580335617065430e-01 -3.2639133930206299e-01</leafValues></_>
        <_>
          <internalNodes>
            0 -1 52 -3.6520237335935235e-04</internalNodes>
          <leafValues>
            -6.1145347356796265e-01 3.8169106841087341e-01</leafValues></_></weakClassifiers></_>
    <!-- stage 5 -->
    <_>
      <maxWeakCount>11</maxWeakCount>
      <stageThreshold>-1.6792060136795044e+00</stageThreshold>
      <weakClassifiers>
        <_>
          <internalNodes>
            0 -1 236 -8.9808694610837847e-05</internalNodes>
          <leafValues>
            7.1117424964904785e-01 -5.6531530618667603e-01</leafValues></_>
        <_>
          <internalNodes>
            0 -1 213 -4.1444160044193268e-02</internalNodes>
          <leafValues>
            7.7752232551574707e-01 -4.1364347934722900e-01</leafValues></_>
        <_>
          <internalNodes>
            0 -1 70 1.6230574692599475e-04</internalNodes>
          <leafValues>
            -4.3018859624862671e-01 5.5514502525329590e-01</leafValues></_>
        <_>
          <internalNodes>
            0 -1 42 -6.4118877053260803e-02</internalNodes>
          <leafValues>
            7.7146804332733154e-01 -2.5031980872154236e-01</leafValues></_>
        <_>
          <internalNodes>
            0 -1 210 6.1968993395566940e-04</internalNodes>
          <leafValues>
            -4.4310092926025391e-01 4.1296562552452087e-01</leafValues></_>
        <_>
          <internalNodes>
            0 -1 91 -3.8951745955273509e-04</internalNodes>
          <leafValues>
            -7.9797327518463135e-01 2.2294445335865021e-01</leafValues></_>
        <_>
          <internalNodes>
            0 -1 144 2.1677547192666680e-04</internalNodes>
          <leafValues>
            -4.8836606740951538e-01 3.0057552456855774e-01</leafValues></_>
        <_>
          <internalNodes>
            0 -1 161 9.8643242381513119e-05</internalNodes>
          <leafValues>
            -4.9719753861427307e-01 3.1597003340721130e-01</leafValues></_>
        <_>
          <internalNodes>
            0 -1 165 4.9445396289229393e-03</internalNodes>
          <leafValues>
            -3.1947222352027893e-01 6.2057679891586304e-01</leafValues></_>
        <_>
          <internalNodes>
            0 -1 159 -1.5219298074953258e-04</internalNodes>
          <leafValues>
            -7.4646478891372681e-01 2.7404078841209412e-01</leafValues></_>
        <_>
          <internalNodes>
            0 -1 27 -2.2096484899520874e-02</internalNodes>
          <leafValues>
            5.8268409967422485e-01 -3.0209973454475403e-01</leafValues></_></weakClassifiers></_>
    <!-- stage 6 -->
    <_>
      <maxWeakCount>10</maxWeakCount>
      <stageThreshold>-1.3342211246490479e+00</stageThreshold>
      <weakClassifiers>
        <_>
          <internalNodes>
            0 -1 6 6.3454122282564640e-03</internalNodes>
          <leafValues>
            -3.6160370707511902e-01 8.6259543895721436e-01</leafValues></_>
        <_>
          <internalNodes>
            0 -1 157 -2.1994640119373798e-03</internalNodes>
          <leafValues>
            6.1709767580032349e-01 -4.8786655068397522e-01</leafValues></_>
        <_>
          <internalNodes>
            0 -1 137 2.2215378703549504e-04</internalNodes>
          <leafValues>
            -5.3171408176422119e-01 4.8837390542030334e-01</leafValues></_>
        <_>
          <internalNodes>
            0 -1 240 -7.8761244367342442e-05</internalNodes>
          <leafValues>
            4.8410531878471375e-01 -4.8985871672630310e-01</leafValues></_>
        <_>
          <internalNodes>
            0 -1 82 -1.9989686552435160e-04</internalNodes>
          <leafValues>
            -8.1415653228759766e-01 2.4438107013702393e-01</leafValues></_>
        <_>
          <internalNodes>
            0 -1 155 1.8805495346896350e-04</internalNodes>
          <leafValues>
            -6.3306736946105957e-01 2.9941400885581970e-01</leafValues></_>
        <_>
          <internalNodes>
            0 -1 131 3.4338585101068020e-03</internalNodes>
          <leafValues>
            -5.6465333700180054e-01 2.9022908210754395e-01</leafValues></_>
        <_>
          <internalNodes>
            0 -1 116 2.0727454102598131e-04</internalNodes>
          <leafValues>
            3.1549003720283508e-01 -6.3801640272140503e-01</leafValues></_>
        <_>
          <internalNodes>
            0 -1 227 1.6378981526941061e-03</internalNodes>
          <leafValues>
            -3.5760641098022461e-01 4.5915484428405762e-01</leafValues></_>
        <_>
          <internalNodes>
            0 -1 15 -3.2604601234197617e-02</internalNodes>
          <leafValues>
            8.2489490509033203e-01 -2.0624990761280060e-01</leafValues></_></weakClassifiers></_>
    <!-- stage 7 -->
    <_>
      <maxWeakCount>13</maxWeakCount>
      <stageThreshold>-1.8803179264068604e+00</stageThreshold>
      <weakClassifiers>
        <_>
          <internalNodes>
            0 -1 126 -3.7106759846210480e-03</internalNodes>
          <leafValues>
            6.7850637435913086e-01 -6.0945272445678711e-01</leafValues></_>
        <_>
          <internalNodes>
            0 -1 187 -7.3465227615088224e-04</internalNodes>
          <leafValues>
            5.2236419916152954e-01 -5.9957081079483032e-01</leafValues></_>
        <_>
          <internalNodes>
            0 -1 117 1.8172964337281883e-04</internalNodes>
          <leafValues>
            -6.2226676940917969e-01 4.0706446766853333e-01</leafValues></_>
        <_>
          <internalNodes>
            0 -1 207 1.8353145569562912e-03</internalNodes>
          <leafValues>
            -4.8937261104583740e-01 4.5524966716766357e-01</leafValues></_>
        <_>
          <internalNodes>
            0 -1 167 -7.5401423964649439e-04</internalNodes>
          <leafValues>
            4.3976765871047974e-01 -4.3453705310821533e-01</leafValues></_>
        <_>
          <internalNodes>
            0 -1 106 -1.1198526248335838e-02</internalNodes>
          <leafValues>
            2.7264055609703064e-01 -7.3267340660095215e-01</leafValues></_>
        <_>
          <internalNodes>
            0 -1 244 2.3557525128126144e-04</internalNodes>
          <leafValues>
            -5.0671982765197754e-01 3.1549301743507385e-01</leafValues></_>
        <_>
          <internalNodes>
            0 -1 151 2.5146320695057511e-04</internalNodes>
          <leafValues>
            -5.9007132053375244e-01 2.6454067230224609e-01</leafValues></_>
        <_>
          <internalNodes>
            0 -1 174 -2.4207725073210895e-04</internalNodes>
          <leafValues>
            2.8419294953346252e-01 -5.7806599140167236e-01</leafValues></_>
        <_>
          <internalNodes>
            0 -1 180 1.3202838599681854e-02</internalNodes>
          <leafValues>
            -3.0176445841789246e-01 5.6870889663696289e-01</leafValues></_>
        <_>
          <internalNodes>
            0 -1 83 -2.1848417236469686e-04</internalNodes>
          <leafValues>
            -7.0816498994827271e-01 2.7417674660682678e-01</leafValues></_>
        <_>
          <internalNodes>
            0 -1 123 1.2708381291304249e-05</internalNodes>
          <leafValues>
            -4.8665788769721985e-01 3.1099817156791687e-01</leafValues></_>
        <_>
          <internalNodes>
            0 -1 105 4.1788814996834844e-05</internalNodes>
          <leafValues>
            -5.8752143383026123e-01 2.6086017489433289e-01</leafValues></_></weakClassifiers></_>
    <!-- stage 8 -->
    <_>
      <maxWeakCount>15</maxWeakCount>
      <stageThreshold>-1.7666413784027100e+00</stageThreshold>
      <weakClassifiers>
        <_>
          <internalNodes>
            0 -1 94 1.9275341765023768e-04</internalNodes>
          <leafValues>
            -6.9637882709503174e-01 6.5731811523437500e-01</leafValues></_>
        <_>
          <internalNodes>
            0 -1 9 6.7323083057999611e-03</internalNodes>
          <leafValues>
            -3.9818668365478516e-01 6.3093388080596924e-01</leafValues></_>
        <_>
          <internalNodes>
            0 -1 75 -6.2011956470087171e-04</internalNodes>
          <leafValues>
            -7.2895133495330811e-01 3.3246576786041260e-01</leafValues></_>
        <_>
          <internalNodes>
            0 -1 122 1.6010578838177025e-04</internalNodes>
          <leafValues>
            -6.1766332387924194e-01 3.0396562814712524e-01</leafValues></_>
        <_>
          <internalNodes>
            0 -1 67 3.3252784609794617e-01</internalNodes>
          <leafValues>
            1.6175839304924011e-01 -9.4270336627960205e-01</leafValues></_>
        <_>
          <internalNodes>
            0 -1 95 6.4101950556505471e-05</internalNodes>
          <leafValues>
            3.1959354877471924e-01 -5.2732998132705688e-01</leafValues></_>
        <_>
          <internalNodes>
            0 -1 130 -1.3938947813585401e-04</internalNodes>
          <leafValues>
            -6.6225355863571167e-01 2.4030604958534241e-01</leafValues></_>
        <_>
          <internalNodes>
            0 -1 112 1.8765134736895561e-03</internalNodes>
          <leafValues>
            -4.5552042126655579e-01 3.2582139968872070e-01</leafValues></_>
        <_>
          <internalNodes>
            0 -1 231 -2.1365468273870647e-04</internalNodes>
          <leafValues>
            4.2230832576751709e-01 -3.5165801644325256e-01</leafValues></_>
        <_>
          <internalNodes>
            0 -1 195 -4.7792862169444561e-03</internalNodes>
          <leafValues>
            6.4268422126770020e-01 -2.7701967954635620e-01</leafValues></_>
        <_>
          <internalNodes>
            0 -1 26 -2.4684298783540726e-02</internalNodes>
          <leafValues>
            5.1997113227844238e-01 -2.6799377799034119e-01</leafValues></_>
        <_>
          <internalNodes>
            0 -1 77 6.6557608079165220e-05</internalNodes>
          <leafValues>
            2.7612850069999695e-01 -7.0910471677780151e-01</leafValues></_>
        <_>
          <internalNodes>
            0 -1 147 -9.5317012164741755e-04</internalNodes>
          <leafValues>
            2.5279501080513000e-01 -5.3282701969146729e-01</leafValues></_>
        <_>
          <internalNodes>
            0 -1 214 3.2580975675955415e-04</internalNodes>
          <leafValues>
            -3.4016025066375732e-01 4.4073811173439026e-01</leafValues></_>
        <_>
          <internalNodes>
            0 -1 97 -1.1070917025790550e-05</internalNodes>
          <leafValues>
            4.0593454241752625e-01 -3.8040143251419067e-01</leafValues></_></weakClassifiers></_>
    <!-- stage 9 -->
    <_>
      <maxWeakCount>14</maxWeakCount>
      <stageThreshold>-1.6901829242706299e+00</stageThreshold>
      <weakClassifiers>
        <_>
          <internalNodes>
            0 -1 154 -5.9192208573222160e-04</internalNodes>
          <leafValues>
            5.9133630990982056e-01 -8.0831825733184814e-01</leafValues></_>
        <_>
          <internalNodes>
            0 -1 160 -1.9867995753884315e-02</internalNodes>
          <leafValues>
            6.4207917451858521e-01 -5.2990829944610596e-01</leafValues></_>
        <_>
          <internalNodes>
            0 -1 55 -2.8298393590375781e-04</internalNodes>
          <leafValues>
            -6.8472480773925781e-01 4.3786010146141052e-01</leafValues></_>
        <_>
          <internalNodes>
            0 -1 197 -2.5324014131911099e-05</internalNodes>
          <leafValues>
            3.7195739150047302e-01 -5.2853542566299438e-01</leafValues></_>
        <_>
          <internalNodes>
            0 -1 232 -4.7318248107330874e-05</internalNodes>
          <leafValues>
            3.3583658933639526e-01 -4.7977080941200256e-01</leafValues></_>
        <_>
          <internalNodes>
            0 -1 185 2.1944593754597008e-04</internalNodes>
          <leafValues>
            -4.1582047939300537e-01 4.0357440710067749e-01</leafValues></_>
        <_>
          <internalNodes>
            0 -1 89 -5.9262581635266542e-04</internalNodes>
          <leafValues>
            -7.1156495809555054e-01 1.9876749813556671e-01</leafValues></_>
        <_>
          <internalNodes>
            0 -1 128 -2.1390440451796167e-05</internalNodes>
          <leafValues>
            3.3780074119567871e-01 -4.2052492499351501e-01</leafValues></_>
        <_>
          <internalNodes>
            0 -1 138 -7.2382106736768037e-05</internalNodes>
          <leafValues>
            -8.1105911731719971e-01 1.8184581398963928e-01</leafValues></_>
        <_>
          <internalNodes>
            0 -1 21 -5.4107714444398880e-02</internalNodes>
          <leafValues>
            6.5378439426422119e-01 -2.4495220184326172e-01</leafValues></_>
        <_>
          <internalNodes>
            0 -1 46 4.7668125480413437e-03</internalNodes>
          <leafValues>
            2.3352968692779541e-01 -6.2247878313064575e-01</leafValues></_>
        <_>
          <internalNodes>
            0 -1 226 -5.5454261600971222e-03</internalNodes>
          <leafValues>
            5.6409412622451782e-01 -2.3244142532348633e-01</leafValues></_>
        <_>
          <internalNodes>
            0 -1 114 2.2214354248717427e-04</internalNodes>
          <leafValues>
            2.2713203728199005e-01 -5.3559058904647827e-01</leafValues></_>
        <_>
          <internalNodes>
            0 -1 66 6.2163599068298936e-05</internalNodes>
          <leafValues>
            -4.2713582515716553e-01 2.7396300435066223e-01</leafValues></_></weakClassifiers></_>
    <!-- stage 10 -->
    <_>
      <maxWeakCount>16</maxWeakCount>
      <stageThreshold>-1.8046677112579346e+00</stageThreshold>
      <weakClassifiers>
        <_>
          <internalNodes>
            0 -1 87 1.8307167920283973e-04</internalNodes>
          <leafValues>
            -7.0431894063949585e-01 5.9382820129394531e-01</leafValues></_>
        <_>
          <internalNodes>
            0 -1 84 -2.6488502044230700e-05</internalNodes>
          <leafValues>
            4.4827339053153992e-01 -6.1161869764328003e-01</leafValues></_>
        <_>
          <internalNodes>
            0 -1 3 7.4222162365913391e-02</internalNodes>
          <leafValues>
            -5.1284337043762207e-01 4.4782710075378418e-01</leafValues></_>
        <_>
          <internalNodes>
            0 -1 29 1.5072211681399494e-04</internalNodes>
          <leafValues>
            -4.2964139580726624e-01 4.6791422367095947e-01</leafValues></_>
        <_>
          <internalNodes>
            0 -1 191 6.1714439652860165e-05</internalNodes>
          <leafValues>
            -3.8617345690727234e-01 4.3727296590805054e-01</leafValues></_>
        <_>
          <internalNodes>
            0 -1 109 5.7284545619040728e-04</internalNodes>
          <leafValues>
            -4.1979128122329712e-01 3.9764213562011719e-01</leafValues></_>
        <_>
          <internalNodes>
            0 -1 196 1.6290189523715526e-04</internalNodes>
          <leafValues>
            -4.0023416280746460e-01 3.9639535546302795e-01</leafValues></_>
        <_>
          <internalNodes>
            0 -1 132 -2.6394482702016830e-03</internalNodes>
          <leafValues>
            2.9198643565177917e-01 -5.0613003969192505e-01</leafValues></_>
        <_>
          <internalNodes>
            0 -1 59 -4.4041589717380702e-05</internalNodes>
          <leafValues>
            -6.7520868778228760e-01 1.7342042922973633e-01</leafValues></_>
        <_>
          <internalNodes>
            0 -1 35 -6.4259342849254608e-02</internalNodes>
          <leafValues>
            6.6972953081130981e-01 -2.4487587809562683e-01</leafValues></_>
        <_>
          <internalNodes>
            0 -1 162 -1.2426199100445956e-04</internalNodes>
          <leafValues>
            -5.8326172828674316e-01 2.4058058857917786e-01</leafValues></_>
        <_>
          <internalNodes>
            0 -1 217 1.1144265299662948e-03</internalNodes>
          <leafValues>
            -2.4749729037284851e-01 5.8466804027557373e-01</leafValues></_>
        <_>
          <internalNodes>
            0 -1 36 -8.8520384451840073e-05</internalNodes>
          <leafValues>
            -5.0902813673019409e-01 2.8112533688545227e-01</leafValues></_>
        <_>
          <internalNodes>
            0 -1 184 1.1822805390693247e-04</internalNodes>
          <leafValues>
            -4.2368951439857483e-01 2.6845911145210266e-01</leafValues></_>
        <_>
          <internalNodes>
            0 -1 61 1.0830067098140717e-02</internalNodes>
          <leafValues>
            -2.0173056423664093e-01 6.3172334432601929e-01</leafValues></_>
        <_>
          <internalNodes>
            0 -1 239 -1.5458036796189845e-04</internalNodes>
          <leafValues>
            5.0944250822067261e-01 -2.7661514282226562e-01</leafValues></_></weakClassifiers></_>
    <!-- stage 11 -->
    <_>
      <maxWeakCount>16</maxWeakCount>
      <stageThreshold>-1.4079806804656982e+00</stageThreshold>
      <weakClassifiers>
        <_>
          <internalNodes>
            0 -1 18 2.5426652427995577e-05</internalNodes>
          <leafValues>
            -5.3398060798645020e-01 6.6176468133926392e-01</leafValues></_>
        <_>
          <internalNodes>
            0 -1 234 -1.0365740308770910e-04</internalNodes>
          <leafValues>
            4.2674115300178528e-01 -5.6757259368896484e-01</leafValues></_>
        <_>
          <internalNodes>
            0 -1 201 -3.3307969570159912e-03</internalNodes>
          <leafValues>
            3.2604819536209106e-01 -6.0964572429656982e-01</leafValues></_>
        <_>
          <internalNodes>
            0 -1 19 5.4816086776554585e-04</internalNodes>
          <leafValues>
            3.0655440688133240e-01 -5.4088687896728516e-01</leafValues></_>
        <_>
          <internalNodes>
            0 -1 9 1.1864602565765381e-02</internalNodes>
          <leafValues>
            -2.7420243620872498e-01 6.1157256364822388e-01</leafValues></_>
        <_>
          <internalNodes>
            0 -1 120 -3.0856358353048563e-04</internalNodes>
          <leafValues>
            2.8422823548316956e-01 -4.7905257344245911e-01</leafValues></_>
        <_>
          <internalNodes>
            0 -1 43 2.0796325057744980e-02</internalNodes>
          <leafValues>
            -2.2718979418277740e-01 7.4632066488265991e-01</leafValues></_>
        <_>
          <internalNodes>
            0 -1 80 -1.0828976883203723e-05</internalNodes>
          <leafValues>
            4.3233874440193176e-01 -3.7601202726364136e-01</leafValues></_>
        <_>
          <internalNodes>
            0 -1 243 -4.6809852123260498e-02</internalNodes>
          <leafValues>
            -7.1097695827484131e-01 1.6827043890953064e-01</leafValues></_>
        <_>
          <internalNodes>
            0 -1 172 -3.2485992414876819e-04</internalNodes>
          <leafValues>
            -8.6083590984344482e-01 1.5483252704143524e-01</leafValues></_>
        <_>
          <internalNodes>
            0 -1 135 2.3748392704874277e-03</internalNodes>
          <leafValues>
            -4.2484629154205322e-01 3.4976023435592651e-01</leafValues></_>
        <_>
          <internalNodes>
            0 -1 177 9.0275987982749939e-02</internalNodes>
          <leafValues>
            -1.8877942860126495e-01 7.7348643541336060e-01</leafValues></_>
        <_>
          <internalNodes>
            0 -1 215 1.5082873869687319e-04</internalNodes>
          <leafValues>
            -3.9865350723266602e-01 3.6173048615455627e-01</leafValues></_>
        <_>
          <internalNodes>
            0 -1 130 -1.4689478848595172e-04</internalNodes>
          <leafValues>
            -6.1923807859420776e-01 2.0450545847415924e-01</leafValues></_>
        <_>
          <internalNodes>
            0 -1 130 3.6792513128602877e-05</internalNodes>
          <leafValues>
            2.7173277735710144e-01 -4.2570289969444275e-01</leafValues></_>
        <_>
          <internalNodes>
            0 -1 39 -3.4639004617929459e-02</internalNodes>
          <leafValues>
            7.6256859302520752e-01 -1.5533986687660217e-01</leafValues></_></weakClassifiers></_>
    <!-- stage 12 -->
    <_>
      <maxWeakCount>17</maxWeakCount>
      <stageThreshold>-1.5780141353607178e+00</stageThreshold>
      <weakClassifiers>
        <_>
          <internalNodes>
            0 -1 152 -3.8689173758029938e-02</internalNodes>
          <leafValues>
            7.2722595930099487e-01 -3.9072847366333008e-01</leafValues></_>
        <_>
          <internalNodes>
            0 -1 129 -3.1092995777726173e-04</internalNodes>
          <leafValues>
            3.9213430881500244e-01 -7.8388673067092896e-01</leafValues></_>
        <_>
          <internalNodes>
            0 -1 79 -1.2559321476146579e-04</internalNodes>
          <leafValues>
            -6.7987978458404541e-01 2.9714560508728027e-01</leafValues></_>
        <_>
          <internalNodes>
            0 -1 169 -1.4636777341365814e-03</internalNodes>
          <leafValues>
            5.6036996841430664e-01 -3.2032996416091919e-01</leafValues></_>
        <_>
          <internalNodes>
            0 -1 146 1.9576872000470757e-04</internalNodes>
          <leafValues>
            3.1000831723213196e-01 -5.1652604341506958e-01</leafValues></_>
        <_>
          <internalNodes>
            0 -1 65 -9.6342691904283129e-06</internalNodes>
          <leafValues>
            -5.1860696077346802e-01 2.4894535541534424e-01</leafValues></_>
        <_>
          <internalNodes>
            0 -1 199 2.8750352794304490e-04</internalNodes>
          <leafValues>
            -2.6537728309631348e-01 4.9141630530357361e-01</leafValues></_>
        <_>
          <internalNodes>
            0 -1 54 -3.1820690492168069e-04</internalNodes>
          <leafValues>
            -5.4804843664169312e-01 2.3224750161170959e-01</leafValues></_>
        <_>
          <internalNodes>
            0 -1 183 -3.2045524567365646e-03</internalNodes>
          <leafValues>
            4.5758485794067383e-01 -2.7393749356269836e-01</leafValues></_>
        <_>
          <internalNodes>
            0 -1 222 3.6793647450394928e-04</internalNodes>
          <leafValues>
            -2.6949185132980347e-01 4.6344593167304993e-01</leafValues></_>
        <_>
          <internalNodes>
            0 -1 133 3.0430668266490102e-04</internalNodes>
          <leafValues>
            -4.2258349061012268e-01 2.9343113303184509e-01</leafValues></_>
        <_>
          <internalNodes>
            0 -1 149 -7.5128441676497459e-04</internalNodes>
          <leafValues>
            -6.5669089555740356e-01 2.1405094861984253e-01</leafValues></_>
        <_>
          <internalNodes>
            0 -1 62 -1.2276990339159966e-02</internalNodes>
          <leafValues>
            3.9647734165191650e-01 -3.3579015731811523e-01</leafValues></_>
        <_>
          <internalNodes>
            0 -1 159 -1.3758696150034666e-04</internalNodes>
          <leafValues>
            -5.9608757495880127e-01 1.8564061820507050e-01</leafValues></_>
        <_>
          <internalNodes>
            0 -1 56 2.7157392352819443e-02</internalNodes>
          <leafValues>
            -1.9592203199863434e-01 6.7784994840621948e-01</leafValues></_>
        <_>
          <internalNodes>
            0 -1 153 -1.8313730834051967e-04</internalNodes>
          <leafValues>
            -6.1397343873977661e-01 2.3085919022560120e-01</leafValues></_>
        <_>
          <internalNodes>
            0 -1 245 -1.2576194421853870e-04</internalNodes>
          <leafValues>
            -6.4294368028640747e-01 1.6547077894210815e-01</leafValues></_></weakClassifiers></_>
    <!-- stage 13 -->
    <_>
      <maxWeakCount>14</maxWeakCount>
      <stageThreshold>-1.4373942613601685e+00</stageThreshold>
      <weakClassifiers>
        <_>
          <internalNodes>
            0 -1 164 -1.0958253405988216e-03</internalNodes>
          <leafValues>
            6.3901549577713013e-01 -4.9875929951667786e-01</leafValues></_>
        <_>
          <internalNodes>
            0 -1 48 1.6863396740518510e-04</internalNodes>
          <leafValues>
            -5.9512865543365479e-01 4.5040512084960938e-01</leafValues></_>
        <_>
          <internalNodes>
            0 -1 81 4.8108892515301704e-03</internalNodes>
          <leafValues>
            -6.4922183752059937e-01 3.2693365216255188e-01</leafValues></_>
        <_>
          <internalNodes>
            0 -1 176 -5.2865932229906321e-04</internalNodes>
          <leafValues>
            -7.5954478979110718e-01 2.0501960813999176e-01</leafValues></_>
        <_>
          <internalNodes>
            0 -1 107 2.1531325182877481e-04</internalNodes>
          <leafValues>
            -4.9101176857948303e-01 2.8118252754211426e-01</leafValues></_>
        <_>
          <internalNodes>
            0 -1 198 1.6064851661212742e-04</internalNodes>
          <leafValues>
            -4.1694849729537964e-01 3.4857997298240662e-01</leafValues></_>
        <_>
          <internalNodes>
            0 -1 88 -1.5953442198224366e-04</internalNodes>
          <leafValues>
            -7.8882974386215210e-01 1.8869337439537048e-01</leafValues></_>
        <_>
          <internalNodes>
            0 -1 219 -4.4262027950026095e-04</internalNodes>
          <leafValues>
            4.5885860919952393e-01 -3.1996977329254150e-01</leafValues></_>
        <_>
          <internalNodes>
            0 -1 181 1.2857280125899706e-05</internalNodes>
          <leafValues>
            -4.2477235198020935e-01 3.3429747819900513e-01</leafValues></_>
        <_>
          <internalNodes>
            0 -1 98 -5.3313828539103270e-04</internalNodes>
          <leafValues>
            -5.0786983966827393e-01 2.1719735860824585e-01</leafValues></_>
        <_>
          <internalNodes>
            0 -1 228 -1.2180041812825948e-04</internalNodes>
          <leafValues>
            3.5193777084350586e-01 -3.3741065859794617e-01</leafValues></_>
        <_>
          <internalNodes>
            0 -1 22 2.9295822605490685e-02</internalNodes>
          <leafValues>
            -2.3500691354274750e-01 5.2101027965545654e-01</leafValues></_>
        <_>
          <internalNodes>
            0 -1 205 -1.2690139003098011e-02</internalNodes>
          <leafValues>
            -4.9306237697601318e-01 2.4125151336193085e-01</leafValues></_>
        <_>
          <internalNodes>
            0 -1 206 -1.0431276261806488e-01</internalNodes>
          <leafValues>
            -8.3503693342208862e-01 1.5322116017341614e-01</leafValues></_></weakClassifiers></_>
    <!-- stage 14 -->
    <_>
      <maxWeakCount>15</maxWeakCount>
      <stageThreshold>-1.3397686481475830e+00</stageThreshold>
      <weakClassifiers>
        <_>
          <internalNodes>
            0 -1 4 4.7773253172636032e-03</internalNodes>
          <leafValues>
            -3.4874758124351501e-01 6.9418960809707642e-01</leafValues></_>
        <_>
          <internalNodes>
            0 -1 237 -3.2806000672280788e-04</internalNodes>
          <leafValues>
            4.6318462491035461e-01 -5.1938402652740479e-01</leafValues></_>
        <_>
          <internalNodes>
            0 -1 170 -3.8158710231073201e-04</internalNodes>
          <leafValues>
            2.5893267989158630e-01 -6.5625405311584473e-01</leafValues></_>
        <_>
          <internalNodes>
            0 -1 33 -6.9721858017146587e-04</internalNodes>
          <leafValues>
            -6.5261018276214600e-01 2.4844458699226379e-01</leafValues></_>
        <_>
          <internalNodes>
            0 -1 145 -3.0652919667772949e-04</internalNodes>
          <leafValues>
            2.0927789807319641e-01 -6.3438808917999268e-01</leafValues></_>
        <_>
          <internalNodes>
            0 -1 202 1.2648808478843421e-05</internalNodes>
          <leafValues>
            -4.4182470440864563e-01 3.3730325102806091e-01</leafValues></_>
        <_>
          <internalNodes>
            0 -1 188 -1.6696909442543983e-03</internalNodes>
          <leafValues>
            3.4762233495712280e-01 -4.0757238864898682e-01</leafValues></_>
        <_>
          <internalNodes>
            0 -1 101 1.4450700837187469e-04</internalNodes>
          <leafValues>
            3.0137315392494202e-01 -4.6681290864944458e-01</leafValues></_>
        <_>
          <internalNodes>
            0 -1 211 -3.4554511308670044e-02</internalNodes>
          <leafValues>
            6.9917172193527222e-01 -2.0031732320785522e-01</leafValues></_>
        <_>
          <internalNodes>
            0 -1 193 -1.3781340792775154e-02</internalNodes>
          <leafValues>
            5.4537451267242432e-01 -2.4075257778167725e-01</leafValues></_>
        <_>
          <internalNodes>
            0 -1 32 -1.1287701781839132e-03</internalNodes>
          <leafValues>
            -6.2047278881072998e-01 2.5193756818771362e-01</leafValues></_>
        <_>
          <internalNodes>
            0 -1 38 1.9020092440769076e-04</internalNodes>
          <leafValues>
            -5.3659403324127197e-01 2.3389504849910736e-01</leafValues></_>
        <_>
          <internalNodes>
            0 -1 40 3.0002716928720474e-02</internalNodes>
          <leafValues>
            -2.0381253957748413e-01 7.3278719186782837e-01</leafValues></_>
        <_>
          <internalNodes>
            0 -1 50 -1.1810029718617443e-05</internalNodes>
          <leafValues>
            3.4879538416862488e-01 -4.3770557641983032e-01</leafValues></_>
        <_>
          <internalNodes>
            0 -1 111 -2.4313724134117365e-03</internalNodes>
          <leafValues>
            -7.5005286931991577e-01 1.6688515245914459e-01</leafValues></_></weakClassifiers></_>
    <!-- stage 15 -->
    <_>
      <maxWeakCount>17</maxWeakCount>
      <stageThreshold>-1.5212202072143555e+00</stageThreshold>
      <weakClassifiers>
        <_>
          <internalNodes>
            0 -1 20 1.2694986253336538e-05</internalNodes>
          <leafValues>
            -5.3658539056777954e-01 6.1715298891067505e-01</leafValues></_>
        <_>
          <internalNodes>
            0 -1 11 5.4336688481271267e-04</internalNodes>
          <leafValues>
            -4.0482383966445923e-01 5.5184239149093628e-01</leafValues></_>
        <_>
          <internalNodes>
            0 -1 241 -1.6608770238235593e-04</internalNodes>
          <leafValues>
            4.3020969629287720e-01 -3.8323768973350525e-01</leafValues></_>
        <_>
          <internalNodes>
            0 -1 115 -7.9161580651998520e-04</internalNodes>
          <leafValues>
            -6.8732172250747681e-01 2.0550028979778290e-01</leafValues></_>
        <_>
          <internalNodes>
            0 -1 100 2.2681628252030350e-05</internalNodes>
          <leafValues>
            -6.2966418266296387e-01 2.3427976667881012e-01</leafValues></_>
        <_>
          <internalNodes>
            0 -1 140 2.1152209956198931e-04</internalNodes>
          <leafValues>
            -3.7891435623168945e-01 3.4021446108818054e-01</leafValues></_>
        <_>
          <internalNodes>
            0 -1 72 -6.9621235132217407e-02</internalNodes>
          <leafValues>
            2.8672221302986145e-01 -4.8329904675483704e-01</leafValues></_>
        <_>
          <internalNodes>
            0 -1 230 -5.0444528460502625e-04</internalNodes>
          <leafValues>
            2.3465929925441742e-01 -4.6885567903518677e-01</leafValues></_>
        <_>
          <internalNodes>
            0 -1 233 -5.0008133985102177e-03</internalNodes>
          <leafValues>
            -8.4856134653091431e-01 1.5963220596313477e-01</leafValues></_>
        <_>
          <internalNodes>
            0 -1 110 -2.8679356910288334e-04</internalNodes>
          <leafValues>
            -3.9141994714736938e-01 2.7092036604881287e-01</leafValues></_>
        <_>
          <internalNodes>
            0 -1 37 1.0786260645545553e-05</internalNodes>
          <leafValues>
            -4.4969934225082397e-01 2.6664975285530090e-01</leafValues></_>
        <_>
          <internalNodes>
            0 -1 23 1.0458446922712028e-04</internalNodes>
          <leafValues>
            3.0510801076889038e-01 -4.7812959551811218e-01</leafValues></_>
        <_>
          <internalNodes>
            0 -1 192 -5.0479685887694359e-04</internalNodes>
          <leafValues>
            4.7332626581192017e-01 -2.6799929141998291e-01</leafValues></_>
        <_>
          <internalNodes>
            0 -1 31 -2.4596543516963720e-04</internalNodes>
          <leafValues>
            -4.1406330466270447e-01 2.9138496518135071e-01</leafValues></_>
        <_>
          <internalNodes>
            0 -1 0 -1.0651801712810993e-03</internalNodes>
          <leafValues>
            -5.6272739171981812e-01 1.9847492873668671e-01</leafValues></_>
        <_>
          <internalNodes>
            0 -1 34 2.0576111637637950e-05</internalNodes>
          <leafValues>
            -4.4375410676002502e-01 2.4535697698593140e-01</leafValues></_>
        <_>
          <internalNodes>
            0 -1 16 -2.2646249271929264e-03</internalNodes>
          <leafValues>
            2.8463500738143921e-01 -4.1367113590240479e-01</leafValues></_></weakClassifiers></_>
    <!-- stage 16 -->
    <_>
      <maxWeakCount>17</maxWeakCount>
      <stageThreshold>-1.4619939327239990e+00</stageThreshold>
      <weakClassifiers>
        <_>
          <internalNodes>
            0 -1 96 -9.2289358144626021e-04</internalNodes>
          <leafValues>
            6.6273027658462524e-01 -4.5639863610267639e-01</leafValues></_>
        <_>
          <internalNodes>
            0 -1 58 -2.7624913491308689e-04</internalNodes>
          <leafValues>
            -7.1840965747833252e-01 3.3813101053237915e-01</leafValues></_>
        <_>
          <internalNodes>
            0 -1 93 2.0643938332796097e-03</internalNodes>
          <leafValues>
            -6.3717764616012573e-01 2.8221845626831055e-01</leafValues></_>
        <_>
          <internalNodes>
            0 -1 92 -1.0786260645545553e-05</internalNodes>
          <leafValues>
            3.1846892833709717e-01 -5.3845530748367310e-01</leafValues></_>
        <_>
          <internalNodes>
            0 -1 108 2.1369534806581214e-05</internalNodes>
          <leafValues>
            -6.2907594442367554e-01 1.8780770897865295e-01</leafValues></_>
        <_>
          <internalNodes>
            0 -1 179 1.2654482270590961e-04</internalNodes>
          <leafValues>
            -3.7905767560005188e-01 3.5508289933204651e-01</leafValues></_>
        <_>
          <internalNodes>
            0 -1 74 4.0175515459850430e-04</internalNodes>
          <leafValues>
            1.8517690896987915e-01 -6.7598986625671387e-01</leafValues></_>
        <_>
          <internalNodes>
            0 -1 139 2.6034254115074873e-03</internalNodes>
          <leafValues>
            -2.7943795919418335e-01 4.2085772752761841e-01</leafValues></_>
        <_>
          <internalNodes>
            0 -1 220 3.6727098631672561e-04</internalNodes>
          <leafValues>
            -3.2114812731742859e-01 4.0163233876228333e-01</leafValues></_>
        <_>
          <internalNodes>
            0 -1 41 -5.3214720537653193e-05</internalNodes>
          <leafValues>
            -5.7308751344680786e-01 1.9578756392002106e-01</leafValues></_>
        <_>
          <internalNodes>
            0 -1 178 3.5251688677817583e-04</internalNodes>
          <leafValues>
            1.2446805089712143e-01 -8.2086044549942017e-01</leafValues></_>
        <_>
          <internalNodes>
            0 -1 104 2.2578507661819458e-02</internalNodes>
          <leafValues>
            -2.8820887207984924e-01 3.5762804746627808e-01</leafValues></_>
        <_>
          <internalNodes>
            0 -1 212 -9.6690105274319649e-03</internalNodes>
          <leafValues>
            -5.9586244821548462e-01 2.2609558701515198e-01</leafValues></_>
        <_>
          <internalNodes>
            0 -1 174 -3.8117059739306569e-04</internalNodes>
          <leafValues>
            1.9634373486042023e-01 -5.0414484739303589e-01</leafValues></_>
        <_>
          <internalNodes>
            0 -1 44 -3.6816217470914125e-04</internalNodes>
          <leafValues>
            -4.1232624650001526e-01 2.6759460568428040e-01</leafValues></_>
        <_>
          <internalNodes>
            0 -1 221 -1.3109916471876204e-04</internalNodes>
          <leafValues>
            3.1840494275093079e-01 -3.5189375281333923e-01</leafValues></_>
        <_>
          <internalNodes>
            0 -1 14 -3.6727447877638042e-05</internalNodes>
          <leafValues>
            -5.1361280679702759e-01 2.3130038380622864e-01</leafValues></_></weakClassifiers></_>
    <!-- stage 17 -->
    <_>
      <maxWeakCount>17</maxWeakCount>
      <stageThreshold>-1.4641830921173096e+00</stageThreshold>
      <weakClassifiers>
        <_>
          <internalNodes>
            0 -1 163 -4.8213300760835409e-04</internalNodes>
          <leafValues>
            6.2254023551940918e-01 -5.1308900117874146e-01</leafValues></_>
        <_>
          <internalNodes>
            0 -1 73 -2.8864014893770218e-04</internalNodes>
          <leafValues>
            3.6194211244583130e-01 -6.3268077373504639e-01</leafValues></_>
        <_>
          <internalNodes>
            0 -1 99 9.6502597443759441e-05</internalNodes>
          <leafValues>
            -6.5679430961608887e-01 2.9331290721893311e-01</leafValues></_>
        <_>
          <internalNodes>
            0 -1 218 -1.2669640779495239e-01</internalNodes>
          <leafValues>
            7.0983529090881348e-01 -2.6657846570014954e-01</leafValues></_>
        <_>
          <internalNodes>
            0 -1 49 7.1013128035701811e-05</internalNodes>
          <leafValues>
            2.6724928617477417e-01 -5.3187650442123413e-01</leafValues></_>
        <_>
          <internalNodes>
            0 -1 1 4.8092520236968994e-01</internalNodes>
          <leafValues>
            1.1596484482288361e-01 -8.5133707523345947e-01</leafValues></_>
        <_>
          <internalNodes>
            0 -1 150 -2.7424062136560678e-04</internalNodes>
          <leafValues>
            1.8013942241668701e-01 -6.3643062114715576e-01</leafValues></_>
        <_>
          <internalNodes>
            0 -1 69 -1.9419900490902364e-04</internalNodes>
          <leafValues>
            2.9057195782661438e-01 -4.5273694396018982e-01</leafValues></_>
        <_>
          <internalNodes>
            0 -1 102 3.9799918886274099e-04</internalNodes>
          <leafValues>
            3.3027037978172302e-01 -3.8503071665763855e-01</leafValues></_>
        <_>
          <internalNodes>
            0 -1 225 -2.1358304366003722e-05</internalNodes>
          <leafValues>
            3.3551013469696045e-01 -3.4624207019805908e-01</leafValues></_>
        <_>
          <internalNodes>
            0 -1 53 -1.4618108980357647e-03</internalNodes>
          <leafValues>
            -8.3685791492462158e-01 1.3787445425987244e-01</leafValues></_>
        <_>
          <internalNodes>
            0 -1 17 1.0830446626641788e-05</internalNodes>
          <leafValues>
            -4.4027882814407349e-01 2.4109421670436859e-01</leafValues></_>
        <_>
          <internalNodes>
            0 -1 28 1.4994246885180473e-03</internalNodes>
          <leafValues>
            1.6331933438777924e-01 -6.1207693815231323e-01</leafValues></_>
        <_>
          <internalNodes>
            0 -1 189 3.4483196213841438e-04</internalNodes>
          <leafValues>
            -2.7532047033309937e-01 3.7630712985992432e-01</leafValues></_>
        <_>
          <internalNodes>
            0 -1 68 -7.8992976341396570e-05</internalNodes>
          <leafValues>
            -4.3788519501686096e-01 2.2086919844150543e-01</leafValues></_>
        <_>
          <internalNodes>
            0 -1 60 -4.1250183130614460e-04</internalNodes>
          <leafValues>
            -5.3122603893280029e-01 1.9340226054191589e-01</leafValues></_>
        <_>
          <internalNodes>
            0 -1 5 1.3586650602519512e-03</internalNodes>
          <leafValues>
            2.7034091949462891e-01 -3.5644569993019104e-01</leafValues></_></weakClassifiers></_>
    <!-- stage 18 -->
    <_>
      <maxWeakCount>17</maxWeakCount>
      <stageThreshold>-1.4724651575088501e+00</stageThreshold>
      <weakClassifiers>
        <_>
          <internalNodes>
            0 -1 25 1.0624191418173723e-05</internalNodes>
          <leafValues>
            -5.1219511032104492e-01 6.0919541120529175e-01</leafValues></_>
        <_>
          <internalNodes>
            0 -1 190 1.4633996761403978e-04</internalNodes>
          <leafValues>
            -4.7531661391258240e-01 4.5814588665962219e-01</leafValues></_>
        <_>
          <internalNodes>
            0 -1 12 1.5620795311406255e-03</internalNodes>
          <leafValues>
            -3.0671036243438721e-01 5.0967460870742798e-01</leafValues></_>
        <_>
          <internalNodes>
            0 -1 113 1.7823639791458845e-04</internalNodes>
          <leafValues>
            -3.3225399255752563e-01 4.1716122627258301e-01</leafValues></_>
        <_>
          <internalNodes>
            0 -1 158 2.0335664157755673e-04</internalNodes>
          <leafValues>
            -6.6973602771759033e-01 2.0853942632675171e-01</leafValues></_>
        <_>
          <internalNodes>
            0 -1 86 -1.5061433427035809e-02</internalNodes>
          <leafValues>
            2.6880177855491638e-01 -4.5896357297897339e-01</leafValues></_>
        <_>
          <internalNodes>
            0 -1 13 7.5577236711978912e-02</internalNodes>
          <leafValues>
            -2.5554624199867249e-01 5.8655446767807007e-01</leafValues></_>
        <_>
          <internalNodes>
            0 -1 153 -1.8938924768008292e-04</internalNodes>
          <leafValues>
            -6.9166821241378784e-01 2.1432496607303619e-01</leafValues></_>
        <_>
          <internalNodes>
            0 -1 200 -3.0054870876483619e-04</internalNodes>
          <leafValues>
            2.6727795600891113e-01 -4.0525054931640625e-01</leafValues></_>
        <_>
          <internalNodes>
            0 -1 78 -1.2032846279907972e-04</internalNodes>
          <leafValues>
            -5.8623540401458740e-01 1.6813315451145172e-01</leafValues></_>
        <_>
          <internalNodes>
            0 -1 209 -1.9771116785705090e-03</internalNodes>
          <leafValues>
            5.4367357492446899e-01 -2.2048178315162659e-01</leafValues></_>
        <_>
          <internalNodes>
            0 -1 63 2.0825969841098413e-05</internalNodes>
          <leafValues>
            -4.5887613296508789e-01 2.3153524100780487e-01</leafValues></_>
        <_>
          <internalNodes>
            0 -1 24 4.6713382471352816e-04</internalNodes>
          <leafValues>
            2.4803638458251953e-01 -4.6005773544311523e-01</leafValues></_>
        <_>
          <internalNodes>
            0 -1 2 -1.0363033507019281e-03</internalNodes>
          <leafValues>
            3.7112087011337280e-01 -3.2130730152130127e-01</leafValues></_>
        <_>
          <internalNodes>
            0 -1 186 -8.1940018571913242e-04</internalNodes>
          <leafValues>
            5.0500863790512085e-01 -2.0534776151180267e-01</leafValues></_>
        <_>
          <internalNodes>
            0 -1 166 -7.7790085924789310e-05</internalNodes>
          <leafValues>
            -6.0615950822830200e-01 2.2740676999092102e-01</leafValues></_>
        <_>
          <internalNodes>
            0 -1 30 3.5837083123624325e-03</internalNodes>
          <leafValues>
            1.2201024591922760e-01 -7.1830517053604126e-01</leafValues></_></weakClassifiers></_>
    <!-- stage 19 -->
    <_>
      <maxWeakCount>17</maxWeakCount>
      <stageThreshold>-1.5049692392349243e+00</stageThreshold>
      <weakClassifiers>
        <_>
          <internalNodes>
            0 -1 76 3.0379972304217517e-04</internalNodes>
          <leafValues>
            6.0401219129562378e-01 -5.4455447196960449e-01</leafValues></_>
        <_>
          <internalNodes>
            0 -1 173 4.7511370212305337e-05</internalNodes>
          <leafValues>
            4.7894740104675293e-01 -5.8320057392120361e-01</leafValues></_>
        <_>
          <internalNodes>
            0 -1 71 1.3172227190807462e-03</internalNodes>
          <leafValues>
            -5.4004985094070435e-01 3.7230679392814636e-01</leafValues></_>
        <_>
          <internalNodes>
            0 -1 156 -2.7028081240132451e-04</internalNodes>
          <leafValues>
            1.9562716782093048e-01 -7.0617055892944336e-01</leafValues></_>
        <_>
          <internalNodes>
            0 -1 45 1.9810986705124378e-03</internalNodes>
          <leafValues>
            -2.2312894463539124e-01 6.9039916992187500e-01</leafValues></_>
        <_>
          <internalNodes>
            0 -1 216 -1.2610147241503000e-03</internalNodes>
          <leafValues>
            -5.7615846395492554e-01 1.9755408167839050e-01</leafValues></_>
        <_>
          <internalNodes>
            0 -1 47 -1.1687850019370671e-05</internalNodes>
          <leafValues>
            3.0782359838485718e-01 -4.0323147177696228e-01</leafValues></_>
        <_>
          <internalNodes>
            0 -1 51 -2.6602961588650942e-04</internalNodes>
          <leafValues>
            -6.9694292545318604e-01 2.0636908710002899e-01</leafValues></_>
        <_>
          <internalNodes>
            0 -1 57 -3.3826904837042093e-04</internalNodes>
          <leafValues>
            -5.4332077503204346e-01 1.8093441426753998e-01</leafValues></_>
        <_>
          <internalNodes>
            0 -1 224 -1.1000130325555801e-02</internalNodes>
          <leafValues>
            -8.2543230056762695e-01 1.1437707394361496e-01</leafValues></_>
        <_>
          <internalNodes>
            0 -1 238 -2.8966303216293454e-04</internalNodes>
          <leafValues>
            3.7708818912506104e-01 -2.9609867930412292e-01</leafValues></_>
        <_>
          <internalNodes>
            0 -1 223 -4.1696158587001264e-04</internalNodes>
          <leafValues>
            4.2428267002105713e-01 -3.1173291802406311e-01</leafValues></_>
        <_>
          <internalNodes>
            0 -1 208 -2.3213231936097145e-02</internalNodes>
          <leafValues>
            -6.6777515411376953e-01 1.9471605122089386e-01</leafValues></_>
        <_>
          <internalNodes>
            0 -1 204 8.5028689354658127e-03</internalNodes>
          <leafValues>
            1.3956010341644287e-01 -6.9918346405029297e-01</leafValues></_>
        <_>
          <internalNodes>
            0 -1 141 1.7103319987654686e-04</internalNodes>
          <leafValues>
            -2.6854491233825684e-01 3.8547262549400330e-01</leafValues></_>
        <_>
          <internalNodes>
            0 -1 168 -1.4592936495319009e-03</internalNodes>
          <leafValues>
            -3.8699799776077271e-01 3.6026936769485474e-01</leafValues></_>
        <_>
          <internalNodes>
            0 -1 148 1.3449718244373798e-04</internalNodes>
          <leafValues>
            -5.3734290599822998e-01 2.0402617752552032e-01</leafValues></_></weakClassifiers></_></stages>
  <features>
    <_>
      <rects>
        <_>
          0 0 12 1 -1.</_>
        <_>
          6 0 6 1 2.</_></rects>
      <tilted>0</tilted></_>
    <_>
      <rects>
        <_>
          0 0 27 22 -1.</_>
        <_>
          0 11 27 11 2.</_></rects>
      <tilted>0</tilted></_>
    <_>
      <rects>
        <_>
          0 1 3 20 -1.</_>
        <_>
          1 1 1 20 3.</_></rects>
      <tilted>0</tilted></_>
    <_>
      <rects>
        <_>
          0 3 12 19 -1.</_>
        <_>
          3 3 6 19 2.</_></rects>
      <tilted>0</tilted></_>
    <_>
      <rects>
        <_>
          0 4 2 19 -1.</_>
        <_>
          1 4 1 19 2.</_></rects>
      <tilted>0</tilted></_>
    <_>
      <rects>
        <_>
          0 6 1 8 -1.</_>
        <_>
          0 10 1 4 2.</_></rects>
      <tilted>0</tilted></_>
    <_>
      <rects>
        <_>
          0 6 2 17 -1.</_>
        <_>
          1 6 1 17 2.</_></rects>
      <tilted>0</tilted></_>
    <_>
      <rects>
        <_>
          0 6 12 17 -1.</_>
        <_>
          4 6 4 17 3.</_></rects>
      <tilted>0</tilted></_>
    <_>
      <rects>
        <_>
          0 7 12 14 -1.</_>
        <_>
          3 7 6 14 2.</_></rects>
      <tilted>0</tilted></_>
    <_>
      <rects>
        <_>
          0 8 2 15 -1.</_>
        <_>
          1 8 1 15 2.</_></rects>
      <tilted>0</tilted></_>
    <_>
      <rects>
        <_>
          0 9 12 13 -1.</_>
        <_>
          3 9 6 13 2.</_></rects>
      <tilted>0</tilted></_>
    <_>
      <rects>
        <_>
          0 12 4 2 -1.</_>
        <_>
          1 12 2 2 2.</_></rects>
      <tilted>0</tilted></_>
    <_>
      <rects>
        <_>
          0 13 3 3 -1.</_>
        <_>
          1 13 1 3 3.</_></rects>
      <tilted>0</tilted></_>
    <_>
      <rects>
        <_>
          0 17 9 6 -1.</_>
        <_>
          3 19 3 2 9.</_></rects>
      <tilted>0</tilted></_>
    <_>
      <rects>
        <_>
          1 15 3 2 -1.</_>
        <_>
          2 15 1 2 3.</_></rects>
      <tilted>0</tilted></_>
    <_>
      <rects>
        <_>
          1 15 12 6 -1.</_>
        <_>
          1 15 6 3 2.</_>
        <_>
          7 18 6 3 2.</_></rects>
      <tilted>0</tilted></_>
    <_>
      <rects>
        <_>
          1 15 14 4 -1.</_>
        <_>
          1 15 7 2 2.</_>
        <_>
          8 17 7 2 2.</_></rects>
      <tilted>0</tilted></_>
    <_>
      <rects>
        <_>
          2 9 4 4 -1.</_>
        <_>
          3 9 2 4 2.</_></rects>
      <tilted>0</tilted></_>
    <_>
      <rects>
        <_>
          2 10 3 6 -1.</_>
        <_>
          3 10 1 6 3.</_></rects>
      <tilted>0</tilted></_>
    <_>
      <rects>
        <_>
          2 10 3 7 -1.</_>
        <_>
          3 10 1 7 3.</_></rects>
      <tilted>0</tilted></_>
    <_>
      <rects>
        <_>
          2 11 4 3 -1.</_>
        <_>
          3 11 2 3 2.</_></rects>
      <tilted>0</tilted></_>
    <_>
      <rects>
        <_>
          2 11 8 12 -1.</_>
        <_>
          2 11 4 6 2.</_>
        <_>
          6 17 4 6 2.</_></rects>
      <tilted>0</tilted></_>
    <_>
      <rects>
        <_>
          2 11 20 6 -1.</_>
        <_>
          7 11 10 6 2.</_></rects>
      <tilted>0</tilted></_>
    <_>
      <rects>
        <_>
          2 12 2 1 -1.</_>
        <_>
          3 12 1 1 2.</_></rects>
      <tilted>0</tilted></_>
    <_>
      <rects>
        <_>
          2 12 2 2 -1.</_>
        <_>
          3 12 1 2 2.</_></rects>
      <tilted>0</tilted></_>
    <_>
      <rects>
        <_>
          2 12 3 5 -1.</_>
        <_>
          3 12 1 5 3.</_></rects>
      <tilted>0</tilted></_>
    <_>
      <rects>
        <_>
          2 12 10 8 -1.</_>
        <_>
          2 12 5 4 2.</_>
        <_>
          7 16 5 4 2.</_></rects>
      <tilted>0</tilted></_>
    <_>
      <rects>
        <_>
          2 14 12 8 -1.</_>
        <_>
          2 14 6 4 2.</_>
        <_>
          8 18 6 4 2.</_></rects>
      <tilted>0</tilted></_>
    <_>
      <rects>
        <_>
          2 20 4 3 -1.</_>
        <_>
          4 20 2 3 2.</_></rects>
      <tilted>0</tilted></_>
    <_>
      <rects>
        <_>
          3 3 1 2 -1.</_>
        <_>
          3 4 1 1 2.</_></rects>
      <tilted>0</tilted></_>
    <_>
      <rects>
        <_>
          3 3 8 4 -1.</_>
        <_>
          5 3 4 4 2.</_></rects>
      <tilted>0</tilted></_>
    <_>
      <rects>
        <_>
          3 4 3 3 -1.</_>
        <_>
          4 5 1 1 9.</_></rects>
      <tilted>0</tilted></_>
    <_>
      <rects>
        <_>
          3 6 9 1 -1.</_>
        <_>
          6 6 3 1 3.</_></rects>
      <tilted>0</tilted></_>
    <_>
      <rects>
        <_>
          3 6 4 4 -1.</_>
        <_>
          3 7 4 2 2.</_></rects>
      <tilted>0</tilted></_>
    <_>
      <rects>
        <_>
          3 9 4 2 -1.</_>
        <_>
          4 9 2 2 2.</_></rects>
      <tilted>0</tilted></_>
    <_>
      <rects>
        <_>
          3 10 8 12 -1.</_>
        <_>
          3 10 4 6 2.</_>
        <_>
          7 16 4 6 2.</_></rects>
      <tilted>0</tilted></_>
    <_>
      <rects>
        <_>
          3 11 3 1 -1.</_>
        <_>
          4 11 1 1 3.</_></rects>
      <tilted>0</tilted></_>
    <_>
      <rects>
        <_>
          3 12 4 3 -1.</_>
        <_>
          4 12 2 3 2.</_></rects>
      <tilted>0</tilted></_>
    <_>
      <rects>
        <_>
          3 12 6 2 -1.</_>
        <_>
          5 12 2 2 3.</_></rects>
      <tilted>0</tilted></_>
    <_>
      <rects>
        <_>
          3 14 8 6 -1.</_>
        <_>
          3 14 4 3 2.</_>
        <_>
          7 17 4 3 2.</_></rects>
      <tilted>0</tilted></_>
    <_>
      <rects>
        <_>
          3 15 5 8 -1.</_>
        <_>
          3 17 5 4 2.</_></rects>
      <tilted>0</tilted></_>
    <_>
      <rects>
        <_>
          3 16 3 1 -1.</_>
        <_>
          4 16 1 1 3.</_></rects>
      <tilted>0</tilted></_>
    <_>
      <rects>
        <_>
          3 16 14 3 -1.</_>
        <_>
          10 16 7 3 2.</_></rects>
      <tilted>0</tilted></_>
    <_>
      <rects>
        <_>
          3 17 4 6 -1.</_>
        <_>
          3 19 4 2 3.</_></rects>
      <tilted>0</tilted></_>
    <_>
      <rects>
        <_>
          3 19 3 2 -1.</_>
        <_>
          3 20 3 1 2.</_></rects>
      <tilted>0</tilted></_>
    <_>
      <rects>
        <_>
          3 20 2 3 -1.</_>
        <_>
          3 21 2 1 3.</_></rects>
      <tilted>0</tilted></_>
    <_>
      <rects>
        <_>
          4 1 8 6 -1.</_>
        <_>
          6 1 4 6 2.</_></rects>
      <tilted>0</tilted></_>
    <_>
      <rects>
        <_>
          4 4 2 3 -1.</_>
        <_>
          5 4 1 3 2.</_></rects>
      <tilted>0</tilted></_>
    <_>
      <rects>
        <_>
          4 5 1 2 -1.</_>
        <_>
          4 6 1 1 2.</_></rects>
      <tilted>0</tilted></_>
    <_>
      <rects>
        <_>
          4 6 4 1 -1.</_>
        <_>
          5 6 2 1 2.</_></rects>
      <tilted>0</tilted></_>
    <_>
      <rects>
        <_>
          4 6 4 1 -1.</_>
        <_>
          6 6 2 1 2.</_></rects>
      <tilted>0</tilted></_>
    <_>
      <rects>
        <_>
          4 6 6 1 -1.</_>
        <_>
          6 6 2 1 3.</_></rects>
      <tilted>0</tilted></_>
    <_>
      <rects>
        <_>
          4 7 3 3 -1.</_>
        <_>
          5 8 1 1 9.</_></rects>
      <tilted>0</tilted></_>
    <_>
      <rects>
        <_>
          4 7 2 10 -1.</_>
        <_>
          5 7 1 10 2.</_></rects>
      <tilted>0</tilted></_>
    <_>
      <rects>
        <_>
          4 8 3 3 -1.</_>
        <_>
          5 9 1 1 9.</_></rects>
      <tilted>0</tilted></_>
    <_>
      <rects>
        <_>
          4 8 4 1 -1.</_>
        <_>
          5 9 2 1 2.</_></rects>
      <tilted>1</tilted></_>
    <_>
      <rects>
        <_>
          4 8 8 8 -1.</_>
        <_>
          4 8 4 4 2.</_>
        <_>
          8 12 4 4 2.</_></rects>
      <tilted>0</tilted></_>
    <_>
      <rects>
        <_>
          4 9 3 3 -1.</_>
        <_>
          5 10 1 1 9.</_></rects>
      <tilted>0</tilted></_>
    <_>
      <rects>
        <_>
          4 10 3 3 -1.</_>
        <_>
          5 11 1 1 9.</_></rects>
      <tilted>0</tilted></_>
    <_>
      <rects>
        <_>
          4 11 3 1 -1.</_>
        <_>
          5 11 1 1 3.</_></rects>
      <tilted>0</tilted></_>
    <_>
      <rects>
        <_>
          4 11 3 3 -1.</_>
        <_>
          5 12 1 1 9.</_></rects>
      <tilted>0</tilted></_>
    <_>
      <rects>
        <_>
          4 11 8 5 -1.</_>
        <_>
          8 11 4 5 2.</_></rects>
      <tilted>0</tilted></_>
    <_>
      <rects>
        <_>
          4 12 12 6 -1.</_>
        <_>
          4 12 6 3 2.</_>
        <_>
          10 15 6 3 2.</_></rects>
      <tilted>0</tilted></_>
    <_>
      <rects>
        <_>
          4 14 4 1 -1.</_>
        <_>
          5 14 2 1 2.</_></rects>
      <tilted>0</tilted></_>
    <_>
      <rects>
        <_>
          4 14 2 2 -1.</_>
        <_>
          4 15 2 1 2.</_></rects>
      <tilted>0</tilted></_>
    <_>
      <rects>
        <_>
          4 17 2 2 -1.</_>
        <_>
          4 18 2 1 2.</_></rects>
      <tilted>0</tilted></_>
    <_>
      <rects>
        <_>
          4 17 4 3 -1.</_>
        <_>
          4 18 4 1 3.</_></rects>
      <tilted>0</tilted></_>
    <_>
      <rects>
        <_>
          5 0 22 20 -1.</_>
        <_>
          5 10 22 10 2.</_></rects>
      <tilted>0</tilted></_>
    <_>
      <rects>
        <_>
          5 3 1 3 -1.</_>
        <_>
          5 4 1 1 3.</_></rects>
      <tilted>0</tilted></_>
    <_>
      <rects>
        <_>
          5 3 4 6 -1.</_>
        <_>
          7 3 2 6 2.</_></rects>
      <tilted>0</tilted></_>
    <_>
      <rects>
        <_>
          5 4 1 2 -1.</_>
        <_>
          5 5 1 1 2.</_></rects>
      <tilted>0</tilted></_>
    <_>
      <rects>
        <_>
          5 4 6 3 -1.</_>
        <_>
          7 6 2 3 3.</_></rects>
      <tilted>1</tilted></_>
    <_>
      <rects>
        <_>
          5 4 24 12 -1.</_>
        <_>
          11 4 12 12 2.</_></rects>
      <tilted>0</tilted></_>
    <_>
      <rects>
        <_>
          5 5 2 1 -1.</_>
        <_>
          5 5 1 1 2.</_></rects>
      <tilted>1</tilted></_>
    <_>
      <rects>
        <_>
          5 5 3 1 -1.</_>
        <_>
          6 6 1 1 3.</_></rects>
      <tilted>1</tilted></_>
    <_>
      <rects>
        <_>
          5 6 3 3 -1.</_>
        <_>
          6 7 1 1 9.</_></rects>
      <tilted>0</tilted></_>
    <_>
      <rects>
        <_>
          5 6 2 6 -1.</_>
        <_>
          5 8 2 2 3.</_></rects>
      <tilted>0</tilted></_>
    <_>
      <rects>
        <_>
          5 7 2 1 -1.</_>
        <_>
          6 7 1 1 2.</_></rects>
      <tilted>0</tilted></_>
    <_>
      <rects>
        <_>
          5 7 1 3 -1.</_>
        <_>
          5 8 1 1 3.</_></rects>
      <tilted>0</tilted></_>
    <_>
      <rects>
        <_>
          5 7 3 1 -1.</_>
        <_>
          6 8 1 1 3.</_></rects>
      <tilted>1</tilted></_>
    <_>
      <rects>
        <_>
          5 7 2 2 -1.</_>
        <_>
          6 7 1 2 2.</_></rects>
      <tilted>0</tilted></_>
    <_>
      <rects>
        <_>
          5 7 6 8 -1.</_>
        <_>
          7 7 2 8 3.</_></rects>
      <tilted>0</tilted></_>
    <_>
      <rects>
        <_>
          5 8 1 3 -1.</_>
        <_>
          5 9 1 1 3.</_></rects>
      <tilted>0</tilted></_>
    <_>
      <rects>
        <_>
          5 8 1 4 -1.</_>
        <_>
          5 9 1 2 2.</_></rects>
      <tilted>0</tilted></_>
    <_>
      <rects>
        <_>
          5 8 1 6 -1.</_>
        <_>
          5 10 1 2 3.</_></rects>
      <tilted>0</tilted></_>
    <_>
      <rects>
        <_>
          5 8 6 4 -1.</_>
        <_>
          7 8 2 4 3.</_></rects>
      <tilted>0</tilted></_>
    <_>
      <rects>
        <_>
          5 8 24 3 -1.</_>
        <_>
          11 8 12 3 2.</_></rects>
      <tilted>0</tilted></_>
    <_>
      <rects>
        <_>
          5 9 1 2 -1.</_>
        <_>
          5 10 1 1 2.</_></rects>
      <tilted>0</tilted></_>
    <_>
      <rects>
        <_>
          5 9 3 1 -1.</_>
        <_>
          6 9 1 1 3.</_></rects>
      <tilted>0</tilted></_>
    <_>
      <rects>
        <_>
          5 9 3 3 -1.</_>
        <_>
          6 10 1 1 9.</_></rects>
      <tilted>0</tilted></_>
    <_>
      <rects>
        <_>
          5 9 1 10 -1.</_>
        <_>
          5 14 1 5 2.</_></rects>
      <tilted>0</tilted></_>
    <_>
      <rects>
        <_>
          5 9 2 3 -1.</_>
        <_>
          5 10 2 1 3.</_></rects>
      <tilted>0</tilted></_>
    <_>
      <rects>
        <_>
          5 9 2 4 -1.</_>
        <_>
          5 10 2 2 2.</_></rects>
      <tilted>0</tilted></_>
    <_>
      <rects>
        <_>
          5 9 6 3 -1.</_>
        <_>
          7 10 2 1 9.</_></rects>
      <tilted>0</tilted></_>
    <_>
      <rects>
        <_>
          5 10 1 2 -1.</_>
        <_>
          5 11 1 1 2.</_></rects>
      <tilted>0</tilted></_>
    <_>
      <rects>
        <_>
          5 10 2 4 -1.</_>
        <_>
          5 11 2 2 2.</_></rects>
      <tilted>0</tilted></_>
    <_>
      <rects>
        <_>
          5 10 2 2 -1.</_>
        <_>
          5 10 2 1 2.</_></rects>
      <tilted>1</tilted></_>
    <_>
      <rects>
        <_>
          5 11 2 1 -1.</_>
        <_>
          6 11 1 1 2.</_></rects>
      <tilted>0</tilted></_>
    <_>
      <rects>
        <_>
          5 11 3 2 -1.</_>
        <_>
          6 12 1 2 3.</_></rects>
      <tilted>1</tilted></_>
    <_>
      <rects>
        <_>
          5 11 4 4 -1.</_>
        <_>
          6 11 2 4 2.</_></rects>
      <tilted>0</tilted></_>
    <_>
      <rects>
        <_>
          5 11 3 6 -1.</_>
        <_>
          6 11 1 6 3.</_></rects>
      <tilted>0</tilted></_>
    <_>
      <rects>
        <_>
          5 11 2 4 -1.</_>
        <_>
          5 12 2 2 2.</_></rects>
      <tilted>0</tilted></_>
    <_>
      <rects>
        <_>
          5 11 2 6 -1.</_>
        <_>
          5 13 2 2 3.</_></rects>
      <tilted>0</tilted></_>
    <_>
      <rects>
        <_>
          5 11 2 6 -1.</_>
        <_>
          5 14 2 3 2.</_></rects>
      <tilted>0</tilted></_>
    <_>
      <rects>
        <_>
          5 11 9 6 -1.</_>
        <_>
          8 11 3 6 3.</_></rects>
      <tilted>0</tilted></_>
    <_>
      <rects>
        <_>
          5 12 3 6 -1.</_>
        <_>
          6 12 1 6 3.</_></rects>
      <tilted>0</tilted></_>
    <_>
      <rects>
        <_>
          5 12 18 3 -1.</_>
        <_>
          14 12 9 3 2.</_></rects>
      <tilted>0</tilted></_>
    <_>
      <rects>
        <_>
          5 14 1 2 -1.</_>
        <_>
          5 15 1 1 2.</_></rects>
      <tilted>0</tilted></_>
    <_>
      <rects>
        <_>
          5 14 4 1 -1.</_>
        <_>
          6 14 2 1 2.</_></rects>
      <tilted>0</tilted></_>
    <_>
      <rects>
        <_>
          5 14 2 2 -1.</_>
        <_>
          5 15 2 1 2.</_></rects>
      <tilted>0</tilted></_>
    <_>
      <rects>
        <_>
          5 22 8 1 -1.</_>
        <_>
          9 22 4 1 2.</_></rects>
      <tilted>0</tilted></_>
    <_>
      <rects>
        <_>
          6 1 2 13 -1.</_>
        <_>
          7 1 1 13 2.</_></rects>
      <tilted>0</tilted></_>
    <_>
      <rects>
        <_>
          6 2 6 2 -1.</_>
        <_>
          8 4 2 2 3.</_></rects>
      <tilted>1</tilted></_>
    <_>
      <rects>
        <_>
          6 3 1 2 -1.</_>
        <_>
          6 4 1 1 2.</_></rects>
      <tilted>0</tilted></_>
    <_>
      <rects>
        <_>
          6 3 2 5 -1.</_>
        <_>
          6 3 1 5 2.</_></rects>
      <tilted>1</tilted></_>
    <_>
      <rects>
        <_>
          6 4 2 10 -1.</_>
        <_>
          6 4 1 5 2.</_>
        <_>
          7 9 1 5 2.</_></rects>
      <tilted>0</tilted></_>
    <_>
      <rects>
        <_>
          6 4 4 3 -1.</_>
        <_>
          8 4 2 3 2.</_></rects>
      <tilted>0</tilted></_>
    <_>
      <rects>
        <_>
          6 5 1 2 -1.</_>
        <_>
          6 6 1 1 2.</_></rects>
      <tilted>0</tilted></_>
    <_>
      <rects>
        <_>
          6 5 6 16 -1.</_>
        <_>
          9 5 3 16 2.</_></rects>
      <tilted>0</tilted></_>
    <_>
      <rects>
        <_>
          6 6 1 2 -1.</_>
        <_>
          6 7 1 1 2.</_></rects>
      <tilted>0</tilted></_>
    <_>
      <rects>
        <_>
          6 6 2 1 -1.</_>
        <_>
          6 6 1 1 2.</_></rects>
      <tilted>1</tilted></_>
    <_>
      <rects>
        <_>
          6 6 24 11 -1.</_>
        <_>
          12 6 12 11 2.</_></rects>
      <tilted>0</tilted></_>
    <_>
      <rects>
        <_>
          6 7 1 2 -1.</_>
        <_>
          6 8 1 1 2.</_></rects>
      <tilted>0</tilted></_>
    <_>
      <rects>
        <_>
          6 7 3 2 -1.</_>
        <_>
          7 7 1 2 3.</_></rects>
      <tilted>0</tilted></_>
    <_>
      <rects>
        <_>
          6 7 2 2 -1.</_>
        <_>
          6 8 2 1 2.</_></rects>
      <tilted>0</tilted></_>
    <_>
      <rects>
        <_>
          6 8 1 2 -1.</_>
        <_>
          6 9 1 1 2.</_></rects>
      <tilted>0</tilted></_>
    <_>
      <rects>
        <_>
          6 8 2 6 -1.</_>
        <_>
          6 8 1 6 2.</_></rects>
      <tilted>1</tilted></_>
    <_>
      <rects>
        <_>
          6 9 1 2 -1.</_>
        <_>
          6 10 1 1 2.</_></rects>
      <tilted>0</tilted></_>
    <_>
      <rects>
        <_>
          6 9 1 4 -1.</_>
        <_>
          6 10 1 2 2.</_></rects>
      <tilted>0</tilted></_>
    <_>
      <rects>
        <_>
          6 9 2 1 -1.</_>
        <_>
          6 9 1 1 2.</_></rects>
      <tilted>1</tilted></_>
    <_>
      <rects>
        <_>
          6 10 1 3 -1.</_>
        <_>
          6 11 1 1 3.</_></rects>
      <tilted>0</tilted></_>
    <_>
      <rects>
        <_>
          6 10 6 5 -1.</_>
        <_>
          8 10 2 5 3.</_></rects>
      <tilted>0</tilted></_>
    <_>
      <rects>
        <_>
          6 10 24 1 -1.</_>
        <_>
          12 10 12 1 2.</_></rects>
      <tilted>0</tilted></_>
    <_>
      <rects>
        <_>
          6 11 1 2 -1.</_>
        <_>
          6 12 1 1 2.</_></rects>
      <tilted>0</tilted></_>
    <_>
      <rects>
        <_>
          6 11 2 2 -1.</_>
        <_>
          6 12 2 1 2.</_></rects>
      <tilted>0</tilted></_>
    <_>
      <rects>
        <_>
          6 11 2 4 -1.</_>
        <_>
          6 13 2 2 2.</_></rects>
      <tilted>0</tilted></_>
    <_>
      <rects>
        <_>
          6 12 1 6 -1.</_>
        <_>
          6 15 1 3 2.</_></rects>
      <tilted>0</tilted></_>
    <_>
      <rects>
        <_>
          6 13 1 2 -1.</_>
        <_>
          6 14 1 1 2.</_></rects>
      <tilted>0</tilted></_>
    <_>
      <rects>
        <_>
          6 13 3 1 -1.</_>
        <_>
          7 13 1 1 3.</_></rects>
      <tilted>0</tilted></_>
    <_>
      <rects>
        <_>
          6 14 6 1 -1.</_>
        <_>
          8 14 2 1 3.</_></rects>
      <tilted>0</tilted></_>
    <_>
      <rects>
        <_>
          6 15 1 2 -1.</_>
        <_>
          6 16 1 1 2.</_></rects>
      <tilted>0</tilted></_>
    <_>
      <rects>
        <_>
          6 16 1 2 -1.</_>
        <_>
          6 17 1 1 2.</_></rects>
      <tilted>0</tilted></_>
    <_>
      <rects>
        <_>
          7 2 4 8 -1.</_>
        <_>
          7 2 2 4 2.</_>
        <_>
          9 6 2 4 2.</_></rects>
      <tilted>0</tilted></_>
    <_>
      <rects>
        <_>
          7 5 1 2 -1.</_>
        <_>
          7 6 1 1 2.</_></rects>
      <tilted>0</tilted></_>
    <_>
      <rects>
        <_>
          7 7 1 2 -1.</_>
        <_>
          7 8 1 1 2.</_></rects>
      <tilted>0</tilted></_>
    <_>
      <rects>
        <_>
          7 7 2 1 -1.</_>
        <_>
          7 7 1 1 2.</_></rects>
      <tilted>1</tilted></_>
    <_>
      <rects>
        <_>
          7 7 1 3 -1.</_>
        <_>
          6 8 1 1 3.</_></rects>
      <tilted>1</tilted></_>
    <_>
      <rects>
        <_>
          7 7 2 3 -1.</_>
        <_>
          7 7 1 3 2.</_></rects>
      <tilted>1</tilted></_>
    <_>
      <rects>
        <_>
          7 8 1 2 -1.</_>
        <_>
          7 9 1 1 2.</_></rects>
      <tilted>0</tilted></_>
    <_>
      <rects>
        <_>
          7 8 3 3 -1.</_>
        <_>
          8 9 1 1 9.</_></rects>
      <tilted>0</tilted></_>
    <_>
      <rects>
        <_>
          7 8 2 1 -1.</_>
        <_>
          7 8 1 1 2.</_></rects>
      <tilted>1</tilted></_>
    <_>
      <rects>
        <_>
          7 8 3 4 -1.</_>
        <_>
          8 8 1 4 3.</_></rects>
      <tilted>0</tilted></_>
    <_>
      <rects>
        <_>
          7 8 6 6 -1.</_>
        <_>
          7 8 6 3 2.</_></rects>
      <tilted>1</tilted></_>
    <_>
      <rects>
        <_>
          7 9 1 3 -1.</_>
        <_>
          7 10 1 1 3.</_></rects>
      <tilted>0</tilted></_>
    <_>
      <rects>
        <_>
          7 9 2 2 -1.</_>
        <_>
          7 9 1 2 2.</_></rects>
      <tilted>1</tilted></_>
    <_>
      <rects>
        <_>
          7 10 1 2 -1.</_>
        <_>
          7 11 1 1 2.</_></rects>
      <tilted>0</tilted></_>
    <_>
      <rects>
        <_>
          7 10 2 1 -1.</_>
        <_>
          7 10 1 1 2.</_></rects>
      <tilted>1</tilted></_>
    <_>
      <rects>
        <_>
          7 10 8 1 -1.</_>
        <_>
          9 10 4 1 2.</_></rects>
      <tilted>0</tilted></_>
    <_>
      <rects>
        <_>
          7 11 1 2 -1.</_>
        <_>
          7 12 1 1 2.</_></rects>
      <tilted>0</tilted></_>
    <_>
      <rects>
        <_>
          7 11 1 3 -1.</_>
        <_>
          7 12 1 1 3.</_></rects>
      <tilted>0</tilted></_>
    <_>
      <rects>
        <_>
          7 11 6 4 -1.</_>
        <_>
          7 11 6 2 2.</_></rects>
      <tilted>1</tilted></_>
    <_>
      <rects>
        <_>
          7 12 1 2 -1.</_>
        <_>
          7 13 1 1 2.</_></rects>
      <tilted>0</tilted></_>
    <_>
      <rects>
        <_>
          7 12 1 3 -1.</_>
        <_>
          7 13 1 1 3.</_></rects>
      <tilted>0</tilted></_>
    <_>
      <rects>
        <_>
          7 12 1 2 -1.</_>
        <_>
          7 12 1 1 2.</_></rects>
      <tilted>1</tilted></_>
    <_>
      <rects>
        <_>
          7 12 2 2 -1.</_>
        <_>
          7 12 2 1 2.</_></rects>
      <tilted>1</tilted></_>
    <_>
      <rects>
        <_>
          7 12 6 2 -1.</_>
        <_>
          9 12 2 2 3.</_></rects>
      <tilted>0</tilted></_>
    <_>
      <rects>
        <_>
          7 13 1 3 -1.</_>
        <_>
          7 14 1 1 3.</_></rects>
      <tilted>0</tilted></_>
    <_>
      <rects>
        <_>
          7 15 2 2 -1.</_>
        <_>
          7 15 2 1 2.</_></rects>
      <tilted>1</tilted></_>
    <_>
      <rects>
        <_>
          7 19 6 2 -1.</_>
        <_>
          10 19 3 2 2.</_></rects>
      <tilted>0</tilted></_>
    <_>
      <rects>
        <_>
          8 8 4 1 -1.</_>
        <_>
          9 8 2 1 2.</_></rects>
      <tilted>0</tilted></_>
    <_>
      <rects>
        <_>
          8 9 1 2 -1.</_>
        <_>
          8 9 1 1 2.</_></rects>
      <tilted>1</tilted></_>
    <_>
      <rects>
        <_>
          8 9 2 2 -1.</_>
        <_>
          9 9 1 2 2.</_></rects>
      <tilted>0</tilted></_>
    <_>
      <rects>
        <_>
          8 10 1 3 -1.</_>
        <_>
          8 11 1 1 3.</_></rects>
      <tilted>0</tilted></_>
    <_>
      <rects>
        <_>
          8 10 1 4 -1.</_>
        <_>
          7 11 1 2 2.</_></rects>
      <tilted>1</tilted></_>
    <_>
      <rects>
        <_>
          8 11 1 2 -1.</_>
        <_>
          8 11 1 1 2.</_></rects>
      <tilted>1</tilted></_>
    <_>
      <rects>
        <_>
          8 11 4 6 -1.</_>
        <_>
          9 11 2 6 2.</_></rects>
      <tilted>0</tilted></_>
    <_>
      <rects>
        <_>
          8 11 2 3 -1.</_>
        <_>
          7 12 2 1 3.</_></rects>
      <tilted>1</tilted></_>
    <_>
      <rects>
        <_>
          9 3 9 8 -1.</_>
        <_>
          7 5 9 4 2.</_></rects>
      <tilted>1</tilted></_>
    <_>
      <rects>
        <_>
          9 5 3 1 -1.</_>
        <_>
          10 5 1 1 3.</_></rects>
      <tilted>0</tilted></_>
    <_>
      <rects>
        <_>
          9 5 3 3 -1.</_>
        <_>
          10 6 1 1 9.</_></rects>
      <tilted>0</tilted></_>
    <_>
      <rects>
        <_>
          9 5 1 16 -1.</_>
        <_>
          9 9 1 8 2.</_></rects>
      <tilted>0</tilted></_>
    <_>
      <rects>
        <_>
          9 10 3 1 -1.</_>
        <_>
          10 11 1 1 3.</_></rects>
      <tilted>1</tilted></_>
    <_>
      <rects>
        <_>
          9 12 3 1 -1.</_>
        <_>
          10 12 1 1 3.</_></rects>
      <tilted>0</tilted></_>
    <_>
      <rects>
        <_>
          9 12 4 1 -1.</_>
        <_>
          11 12 2 1 2.</_></rects>
      <tilted>0</tilted></_>
    <_>
      <rects>
        <_>
          9 13 1 2 -1.</_>
        <_>
          9 14 1 1 2.</_></rects>
      <tilted>0</tilted></_>
    <_>
      <rects>
        <_>
          9 13 3 1 -1.</_>
        <_>
          10 13 1 1 3.</_></rects>
      <tilted>0</tilted></_>
    <_>
      <rects>
        <_>
          9 13 2 4 -1.</_>
        <_>
          9 13 1 2 2.</_>
        <_>
          10 15 1 2 2.</_></rects>
      <tilted>0</tilted></_>
    <_>
      <rects>
        <_>
          9 14 1 2 -1.</_>
        <_>
          9 14 1 1 2.</_></rects>
      <tilted>1</tilted></_>
    <_>
      <rects>
        <_>
          10 6 1 8 -1.</_>
        <_>
          10 8 1 4 2.</_></rects>
      <tilted>0</tilted></_>
    <_>
      <rects>
        <_>
          10 6 2 4 -1.</_>
        <_>
          10 6 1 2 2.</_>
        <_>
          11 8 1 2 2.</_></rects>
      <tilted>0</tilted></_>
    <_>
      <rects>
        <_>
          10 7 2 3 -1.</_>
        <_>
          11 7 1 3 2.</_></rects>
      <tilted>0</tilted></_>
    <_>
      <rects>
        <_>
          10 9 2 1 -1.</_>
        <_>
          11 9 1 1 2.</_></rects>
      <tilted>0</tilted></_>
    <_>
      <rects>
        <_>
          10 9 2 2 -1.</_>
        <_>
          10 9 1 1 2.</_>
        <_>
          11 10 1 1 2.</_></rects>
      <tilted>0</tilted></_>
    <_>
      <rects>
        <_>
          10 11 12 3 -1.</_>
        <_>
          13 11 6 3 2.</_></rects>
      <tilted>0</tilted></_>
    <_>
      <rects>
        <_>
          10 11 6 6 -1.</_>
        <_>
          10 11 3 6 2.</_></rects>
      <tilted>1</tilted></_>
    <_>
      <rects>
        <_>
          10 13 4 3 -1.</_>
        <_>
          11 13 2 3 2.</_></rects>
      <tilted>0</tilted></_>
    <_>
      <rects>
        <_>
          11 6 1 2 -1.</_>
        <_>
          11 7 1 1 2.</_></rects>
      <tilted>0</tilted></_>
    <_>
      <rects>
        <_>
          11 6 2 2 -1.</_>
        <_>
          12 6 1 2 2.</_></rects>
      <tilted>0</tilted></_>
    <_>
      <rects>
        <_>
          11 7 2 4 -1.</_>
        <_>
          11 7 1 2 2.</_>
        <_>
          12 9 1 2 2.</_></rects>
      <tilted>0</tilted></_>
    <_>
      <rects>
        <_>
          11 9 2 2 -1.</_>
        <_>
          11 9 1 1 2.</_>
        <_>
          12 10 1 1 2.</_></rects>
      <tilted>0</tilted></_>
    <_>
      <rects>
        <_>
          11 9 2 4 -1.</_>
        <_>
          11 10 2 2 2.</_></rects>
      <tilted>0</tilted></_>
    <_>
      <rects>
        <_>
          12 7 3 4 -1.</_>
        <_>
          11 8 3 2 2.</_></rects>
      <tilted>1</tilted></_>
    <_>
      <rects>
        <_>
          12 11 2 2 -1.</_>
        <_>
          13 11 1 2 2.</_></rects>
      <tilted>0</tilted></_>
    <_>
      <rects>
        <_>
          12 12 18 5 -1.</_>
        <_>
          18 12 6 5 3.</_></rects>
      <tilted>0</tilted></_>
    <_>
      <rects>
        <_>
          12 13 2 10 -1.</_>
        <_>
          12 18 2 5 2.</_></rects>
      <tilted>0</tilted></_>
    <_>
      <rects>
        <_>
          13 0 14 16 -1.</_>
        <_>
          20 0 7 16 2.</_></rects>
      <tilted>0</tilted></_>
    <_>
      <rects>
        <_>
          13 0 16 6 -1.</_>
        <_>
          13 0 8 6 2.</_></rects>
      <tilted>1</tilted></_>
    <_>
      <rects>
        <_>
          13 6 6 3 -1.</_>
        <_>
          12 7 6 1 3.</_></rects>
      <tilted>1</tilted></_>
    <_>
      <rects>
        <_>
          14 3 12 11 -1.</_>
        <_>
          20 3 6 11 2.</_></rects>
      <tilted>0</tilted></_>
    <_>
      <rects>
        <_>
          14 18 8 2 -1.</_>
        <_>
          14 18 4 1 2.</_>
        <_>
          18 19 4 1 2.</_></rects>
      <tilted>0</tilted></_>
    <_>
      <rects>
        <_>
          15 8 4 3 -1.</_>
        <_>
          14 9 4 1 3.</_></rects>
      <tilted>1</tilted></_>
    <_>
      <rects>
        <_>
          15 11 12 5 -1.</_>
        <_>
          19 11 4 5 3.</_></rects>
      <tilted>0</tilted></_>
    <_>
      <rects>
        <_>
          15 14 2 6 -1.</_>
        <_>
          15 14 2 3 2.</_></rects>
      <tilted>1</tilted></_>
    <_>
      <rects>
        <_>
          16 5 1 14 -1.</_>
        <_>
          16 5 1 7 2.</_></rects>
      <tilted>1</tilted></_>
    <_>
      <rects>
        <_>
          16 9 4 2 -1.</_>
        <_>
          16 9 2 1 2.</_>
        <_>
          18 10 2 1 2.</_></rects>
      <tilted>0</tilted></_>
    <_>
      <rects>
        <_>
          16 10 3 2 -1.</_>
        <_>
          16 11 3 1 2.</_></rects>
      <tilted>0</tilted></_>
    <_>
      <rects>
        <_>
          16 12 2 2 -1.</_>
        <_>
          16 12 2 1 2.</_></rects>
      <tilted>1</tilted></_>
    <_>
      <rects>
        <_>
          16 15 4 2 -1.</_>
        <_>
          16 15 2 1 2.</_>
        <_>
          18 16 2 1 2.</_></rects>
      <tilted>0</tilted></_>
    <_>
      <rects>
        <_>
          17 4 2 16 -1.</_>
        <_>
          17 4 2 8 2.</_></rects>
      <tilted>1</tilted></_>
    <_>
      <rects>
        <_>
          17 13 3 1 -1.</_>
        <_>
          18 13 1 1 3.</_></rects>
      <tilted>0</tilted></_>
    <_>
      <rects>
        <_>
          18 7 2 4 -1.</_>
        <_>
          18 7 1 2 2.</_>
        <_>
          19 9 1 2 2.</_></rects>
      <tilted>0</tilted></_>
    <_>
      <rects>
        <_>
          18 7 8 2 -1.</_>
        <_>
          18 8 8 1 2.</_></rects>
      <tilted>0</tilted></_>
    <_>
      <rects>
        <_>
          18 10 3 1 -1.</_>
        <_>
          19 10 1 1 3.</_></rects>
      <tilted>0</tilted></_>
    <_>
      <rects>
        <_>
          18 10 4 2 -1.</_>
        <_>
          18 10 2 1 2.</_>
        <_>
          20 11 2 1 2.</_></rects>
      <tilted>0</tilted></_>
    <_>
      <rects>
        <_>
          19 3 4 5 -1.</_>
        <_>
          19 3 2 5 2.</_></rects>
      <tilted>1</tilted></_>
    <_>
      <rects>
        <_>
          19 11 2 1 -1.</_>
        <_>
          20 11 1 1 2.</_></rects>
      <tilted>0</tilted></_>
    <_>
      <rects>
        <_>
          19 13 3 4 -1.</_>
        <_>
          20 14 1 4 3.</_></rects>
      <tilted>1</tilted></_>
    <_>
      <rects>
        <_>
          20 8 3 4 -1.</_>
        <_>
          21 9 1 4 3.</_></rects>
      <tilted>1</tilted></_>
    <_>
      <rects>
        <_>
          20 10 2 1 -1.</_>
        <_>
          21 10 1 1 2.</_></rects>
      <tilted>0</tilted></_>
    <_>
      <rects>
        <_>
          20 12 2 3 -1.</_>
        <_>
          21 12 1 3 2.</_></rects>
      <tilted>0</tilted></_>
    <_>
      <rects>
        <_>
          20 12 2 5 -1.</_>
        <_>
          21 12 1 5 2.</_></rects>
      <tilted>0</tilted></_>
    <_>
      <rects>
        <_>
          20 13 2 1 -1.</_>
        <_>
          21 13 1 1 2.</_></rects>
      <tilted>0</tilted></_>
    <_>
      <rects>
        <_>
          20 16 2 1 -1.</_>
        <_>
          21 16 1 1 2.</_></rects>
      <tilted>0</tilted></_>
    <_>
      <rects>
        <_>
          21 11 2 11 -1.</_>
        <_>
          22 11 1 11 2.</_></rects>
      <tilted>0</tilted></_>
    <_>
      <rects>
        <_>
          21 12 2 1 -1.</_>
        <_>
          22 12 1 1 2.</_></rects>
      <tilted>0</tilted></_>
    <_>
      <rects>
        <_>
          21 12 2 2 -1.</_>
        <_>
          22 12 1 2 2.</_></rects>
      <tilted>0</tilted></_>
    <_>
      <rects>
        <_>
          21 13 2 1 -1.</_>
        <_>
          22 13 1 1 2.</_></rects>
      <tilted>0</tilted></_>
    <_>
      <rects>
        <_>
          21 13 2 2 -1.</_>
        <_>
          22 13 1 2 2.</_></rects>
      <tilted>0</tilted></_>
    <_>
      <rects>
        <_>
          22 10 2 3 -1.</_>
        <_>
          23 10 1 3 2.</_></rects>
      <tilted>0</tilted></_>
    <_>
      <rects>
        <_>
          22 12 2 1 -1.</_>
        <_>
          23 12 1 1 2.</_></rects>
      <tilted>0</tilted></_>
    <_>
      <rects>
        <_>
          22 18 2 1 -1.</_>
        <_>
          23 18 1 1 2.</_></rects>
      <tilted>0</tilted></_>
    <_>
      <rects>
        <_>
          22 19 2 1 -1.</_>
        <_>
          23 19 1 1 2.</_></rects>
      <tilted>0</tilted></_>
    <_>
      <rects>
        <_>
          25 1 5 12 -1.</_>
        <_>
          25 1 5 6 2.</_></rects>
      <tilted>1</tilted></_>
    <_>
      <rects>
        <_>
          25 3 5 12 -1.</_>
        <_>
          25 3 5 6 2.</_></rects>
      <tilted>1</tilted></_>
    <_>
      <rects>
        <_>
          26 1 1 12 -1.</_>
        <_>
          26 1 1 6 2.</_></rects>
      <tilted>1</tilted></_>
    <_>
      <rects>
        <_>
          28 12 2 3 -1.</_>
        <_>
          29 12 1 3 2.</_></rects>
      <tilted>0</tilted></_></features></cascade>
</opencv_storage>
