<?xml version="1.0"?>
<opencv_storage>
<cascade>
  <stageType>BOOST</stageType>
  <featureType>HAAR</featureType>
  <height>23</height>
  <width>30</width>
  <stageParams>
    <boostType>GAB</boostType>
    <minHitRate>9.9900001287460327e-01</minHitRate>
    <maxFalseAlarm>5.0000000000000000e-01</maxFalseAlarm>
    <weightTrimRate>9.4999999999999996e-01</weightTrimRate>
    <maxDepth>1</maxDepth>
    <maxWeakCount>100</maxWeakCount></stageParams>
  <featureParams>
    <maxCatCount>0</maxCatCount>
    <featSize>1</featSize>
    <mode>ALL</mode></featureParams>
  <stageNum>20</stageNum>
  <stages>
    <!-- stage 0 -->
    <_>
      <maxWeakCount>4</maxWeakCount>
      <stageThreshold>-1.5902316570281982e+00</stageThreshold>
      <weakClassifiers>
        <_>
          <internalNodes>
            0 -1 24 9.1291572898626328e-03</internalNodes>
          <leafValues>
            -8.1161695718765259e-01 9.5223259925842285e-01</leafValues></_>
        <_>
          <internalNodes>
            0 -1 155 -4.6553504944313318e-05</internalNodes>
          <leafValues>
            8.7401413917541504e-01 -7.9764729738235474e-01</leafValues></_>
        <_>
          <internalNodes>
            0 -1 26 -3.0487768352031708e-02</internalNodes>
          <leafValues>
            6.9559288024902344e-01 -8.6145442724227905e-01</leafValues></_>
        <_>
          <internalNodes>
            0 -1 81 -1.6604149714112282e-03</internalNodes>
          <leafValues>
            8.8048708438873291e-01 -6.3833463191986084e-01</leafValues></_></weakClassifiers></_>
    <!-- stage 1 -->
    <_>
      <maxWeakCount>3</maxWeakCount>
      <stageThreshold>-8.2318496704101562e-01</stageThreshold>
      <weakClassifiers>
        <_>
          <internalNodes>
            0 -1 3 5.0067506730556488e-02</internalNodes>
          <leafValues>
            -8.0348652601242065e-01 9.3601649999618530e-01</leafValues></_>
        <_>
          <internalNodes>
            0 -1 152 -1.1545963934622705e-04</internalNodes>
          <leafValues>
            7.8586053848266602e-01 -7.7938997745513916e-01</leafValues></_>
        <_>
          <internalNodes>
            0 -1 32 -4.1136406362056732e-02</internalNodes>
          <leafValues>
            7.5969153642654419e-01 -7.8743642568588257e-01</leafValues></_></weakClassifiers></_>
    <!-- stage 2 -->
    <_>
      <maxWeakCount>6</maxWeakCount>
      <stageThreshold>-1.4496411085128784e+00</stageThreshold>
      <weakClassifiers>
        <_>
          <internalNodes>
            0 -1 78 8.5959234274923801e-04</internalNodes>
          <leafValues>
            -8.9411765336990356e-01 7.8532111644744873e-01</leafValues></_>
        <_>
          <internalNodes>
            0 -1 6 2.9215963557362556e-02</internalNodes>
          <leafValues>
            -7.4927133321762085e-01 8.0017107725143433e-01</leafValues></_>
        <_>
          <internalNodes>
            0 -1 181 -3.5484298132359982e-04</internalNodes>
          <leafValues>
            6.9128340482711792e-01 -6.7530685663223267e-01</leafValues></_>
        <_>
          <internalNodes>
            0 -1 73 -4.3828487396240234e-03</internalNodes>
          <leafValues>
            7.0773875713348389e-01 -5.0187546014785767e-01</leafValues></_>
        <_>
          <internalNodes>
            0 -1 60 -6.1725610867142677e-03</internalNodes>
          <leafValues>
            7.4142372608184814e-01 -5.3993284702301025e-01</leafValues></_>
        <_>
          <internalNodes>
            0 -1 126 -4.0751352207735181e-04</internalNodes>
          <leafValues>
            6.2950646877288818e-01 -5.2954733371734619e-01</leafValues></_></weakClassifiers></_>
    <!-- stage 3 -->
    <_>
      <maxWeakCount>7</maxWeakCount>
      <stageThreshold>-2.1404232978820801e+00</stageThreshold>
      <weakClassifiers>
        <_>
          <internalNodes>
            0 -1 149 -1.1693129636114463e-04</internalNodes>
          <leafValues>
            7.7158772945404053e-01 -8.2409179210662842e-01</leafValues></_>
        <_>
          <internalNodes>
            0 -1 168 -1.5434375382028520e-04</internalNodes>
          <leafValues>
            6.2770038843154907e-01 -7.8987044095993042e-01</leafValues></_>
        <_>
          <internalNodes>
            0 -1 116 -2.8077896684408188e-02</internalNodes>
          <leafValues>
            8.7883824110031128e-01 -5.0307619571685791e-01</leafValues></_>
        <_>
          <internalNodes>
            0 -1 53 4.7583950799889863e-04</internalNodes>
          <leafValues>
            -5.1994431018829346e-01 6.0233730077743530e-01</leafValues></_>
        <_>
          <internalNodes>
            0 -1 43 -3.8248367607593536e-02</internalNodes>
          <leafValues>
            4.4058084487915039e-01 -6.8846637010574341e-01</leafValues></_>
        <_>
          <internalNodes>
            0 -1 85 2.5374663528054953e-04</internalNodes>
          <leafValues>
            -5.3301429748535156e-01 5.3280621767044067e-01</leafValues></_>
        <_>
          <internalNodes>
            0 -1 129 -9.0387428645044565e-04</internalNodes>
          <leafValues>
            5.8899277448654175e-01 -5.1735979318618774e-01</leafValues></_></weakClassifiers></_>
    <!-- stage 4 -->
    <_>
      <maxWeakCount>7</maxWeakCount>
      <stageThreshold>-1.7166959047317505e+00</stageThreshold>
      <weakClassifiers>
        <_>
          <internalNodes>
            0 -1 74 1.8093823746312410e-04</internalNodes>
          <leafValues>
            -7.9443252086639404e-01 6.8049424886703491e-01</leafValues></_>
        <_>
          <internalNodes>
            0 -1 25 5.3426589816808701e-02</internalNodes>
          <leafValues>
            -6.5066826343536377e-01 7.6796644926071167e-01</leafValues></_>
        <_>
          <internalNodes>
            0 -1 95 -2.7173322159796953e-03</internalNodes>
          <leafValues>
            7.2330683469772339e-01 -4.7734135389328003e-01</leafValues></_>
        <_>
          <internalNodes>
            0 -1 153 -2.0753112039528787e-04</internalNodes>
          <leafValues>
            4.6979075670242310e-01 -6.9704890251159668e-01</leafValues></_>
        <_>
          <internalNodes>
            0 -1 143 -5.0749024376273155e-03</internalNodes>
          <leafValues>
            7.6260346174240112e-01 -3.8550755381584167e-01</leafValues></_>
        <_>
          <internalNodes>
            0 -1 65 1.6067222168203443e-04</internalNodes>
          <leafValues>
            -4.7460457682609558e-01 5.2678513526916504e-01</leafValues></_>
        <_>
          <internalNodes>
            0 -1 96 -1.8268633866682649e-03</internalNodes>
          <leafValues>
            5.6225907802581787e-01 -4.9927663803100586e-01</leafValues></_></weakClassifiers></_>
    <!-- stage 5 -->
    <_>
      <maxWeakCount>8</maxWeakCount>
      <stageThreshold>-1.7372723817825317e+00</stageThreshold>
      <weakClassifiers>
        <_>
          <internalNodes>
            0 -1 82 2.1692305745091289e-04</internalNodes>
          <leafValues>
            -8.5342788696289062e-01 6.4655905961990356e-01</leafValues></_>
        <_>
          <internalNodes>
            0 -1 17 -5.1398474723100662e-02</internalNodes>
          <leafValues>
            8.5797375440597534e-01 -4.2545664310455322e-01</leafValues></_>
        <_>
          <internalNodes>
            0 -1 89 1.5143423806875944e-03</internalNodes>
          <leafValues>
            -6.6772830486297607e-01 5.4447788000106812e-01</leafValues></_>
        <_>
          <internalNodes>
            0 -1 156 -1.5253919991664588e-04</internalNodes>
          <leafValues>
            4.4379755854606628e-01 -5.5698210000991821e-01</leafValues></_>
        <_>
          <internalNodes>
            0 -1 47 2.5597813073545694e-03</internalNodes>
          <leafValues>
            -5.5440849065780640e-01 4.6269530057907104e-01</leafValues></_>
        <_>
          <internalNodes>
            0 -1 186 -5.0110020674765110e-04</internalNodes>
          <leafValues>
            -7.0006209611892700e-01 3.0904707312583923e-01</leafValues></_>
        <_>
          <internalNodes>
            0 -1 123 3.9827823638916016e-04</internalNodes>
          <leafValues>
            -5.1366341114044189e-01 4.3808344006538391e-01</leafValues></_>
        <_>
          <internalNodes>
            0 -1 0 -4.1370440274477005e-02</internalNodes>
          <leafValues>
            4.7532668709754944e-01 -4.4350332021713257e-01</leafValues></_></weakClassifiers></_>
    <!-- stage 6 -->
    <_>
      <maxWeakCount>9</maxWeakCount>
      <stageThreshold>-1.7282371520996094e+00</stageThreshold>
      <weakClassifiers>
        <_>
          <internalNodes>
            0 -1 160 -1.5816790983080864e-04</internalNodes>
          <leafValues>
            6.9935840368270874e-01 -7.1316307783126831e-01</leafValues></_>
        <_>
          <internalNodes>
            0 -1 144 -5.9485819656401873e-04</internalNodes>
          <leafValues>
            6.8871879577636719e-01 -4.9267587065696716e-01</leafValues></_>
        <_>
          <internalNodes>
            0 -1 1 4.6778872609138489e-02</internalNodes>
          <leafValues>
            -4.5432177186012268e-01 6.3709437847137451e-01</leafValues></_>
        <_>
          <internalNodes>
            0 -1 57 7.8764697536826134e-04</internalNodes>
          <leafValues>
            -7.1399432420730591e-01 4.0074574947357178e-01</leafValues></_>
        <_>
          <internalNodes>
            0 -1 42 -1.1742671951651573e-02</internalNodes>
          <leafValues>
            4.3348914384841919e-01 -5.3578215837478638e-01</leafValues></_>
        <_>
          <internalNodes>
            0 -1 21 -4.6715768985450268e-04</internalNodes>
          <leafValues>
            -8.0528938770294189e-01 2.9561302065849304e-01</leafValues></_>
        <_>
          <internalNodes>
            0 -1 10 -1.9046023488044739e-02</internalNodes>
          <leafValues>
            5.5264383554458618e-01 -4.4191160798072815e-01</leafValues></_>
        <_>
          <internalNodes>
            0 -1 84 9.2816824326291680e-04</internalNodes>
          <leafValues>
            -5.4971480369567871e-01 4.0653866529464722e-01</leafValues></_>
        <_>
          <internalNodes>
            0 -1 124 1.1989481281489134e-03</internalNodes>
          <leafValues>
            -5.0489914417266846e-01 4.0401315689086914e-01</leafValues></_></weakClassifiers></_>
    <!-- stage 7 -->
    <_>
      <maxWeakCount>11</maxWeakCount>
      <stageThreshold>-1.6161141395568848e+00</stageThreshold>
      <weakClassifiers>
        <_>
          <internalNodes>
            0 -1 177 -3.6414878559298813e-04</internalNodes>
          <leafValues>
            6.7652493715286255e-01 -6.4092665910720825e-01</leafValues></_>
        <_>
          <internalNodes>
            0 -1 111 -1.4259178191423416e-02</internalNodes>
          <leafValues>
            6.9369286298751831e-01 -4.9184635281562805e-01</leafValues></_>
        <_>
          <internalNodes>
            0 -1 34 5.2706716815009713e-04</internalNodes>
          <leafValues>
            -5.1472848653793335e-01 5.9793090820312500e-01</leafValues></_>
        <_>
          <internalNodes>
            0 -1 138 6.2144559342414141e-04</internalNodes>
          <leafValues>
            2.4605399370193481e-01 -9.0777504444122314e-01</leafValues></_>
        <_>
          <internalNodes>
            0 -1 172 -7.0214630104601383e-03</internalNodes>
          <leafValues>
            6.1257761716842651e-01 -3.8546016812324524e-01</leafValues></_>
        <_>
          <internalNodes>
            0 -1 187 3.3793228794820607e-04</internalNodes>
          <leafValues>
            -6.5462827682495117e-01 2.4975456297397614e-01</leafValues></_>
        <_>
          <internalNodes>
            0 -1 63 4.8104708548635244e-04</internalNodes>
          <leafValues>
            -5.5213826894760132e-01 3.2340839505195618e-01</leafValues></_>
        <_>
          <internalNodes>
            0 -1 55 -1.0908560361713171e-03</internalNodes>
          <leafValues>
            -6.6518998146057129e-01 2.5556498765945435e-01</leafValues></_>
        <_>
          <internalNodes>
            0 -1 125 -1.0004029609262943e-03</internalNodes>
          <leafValues>
            4.7019457817077637e-01 -3.7683418393135071e-01</leafValues></_>
        <_>
          <internalNodes>
            0 -1 41 -3.1653762562200427e-04</internalNodes>
          <leafValues>
            -8.4001547098159790e-01 2.1614846587181091e-01</leafValues></_>
        <_>
          <internalNodes>
            0 -1 101 -2.1439888514578342e-03</internalNodes>
          <leafValues>
            4.1104227304458618e-01 -3.9795297384262085e-01</leafValues></_></weakClassifiers></_>
    <!-- stage 8 -->
    <_>
      <maxWeakCount>9</maxWeakCount>
      <stageThreshold>-1.4025179147720337e+00</stageThreshold>
      <weakClassifiers>
        <_>
          <internalNodes>
            0 -1 165 -1.5067073400132358e-04</internalNodes>
          <leafValues>
            6.1759728193283081e-01 -7.8947371244430542e-01</leafValues></_>
        <_>
          <internalNodes>
            0 -1 5 6.3442108221352100e-03</internalNodes>
          <leafValues>
            -5.3174054622650146e-01 6.8580937385559082e-01</leafValues></_>
        <_>
          <internalNodes>
            0 -1 38 1.5088811051100492e-04</internalNodes>
          <leafValues>
            -6.9021713733673096e-01 4.2457774281501770e-01</leafValues></_>
        <_>
          <internalNodes>
            0 -1 162 -4.4947052374482155e-03</internalNodes>
          <leafValues>
            6.3419729471206665e-01 -4.2279180884361267e-01</leafValues></_>
        <_>
          <internalNodes>
            0 -1 80 -3.7217751378193498e-04</internalNodes>
          <leafValues>
            3.2759830355644226e-01 -6.3341689109802246e-01</leafValues></_>
        <_>
          <internalNodes>
            0 -1 18 -6.3005931675434113e-02</internalNodes>
          <leafValues>
            7.4371778964996338e-01 -3.1567278504371643e-01</leafValues></_>
        <_>
          <internalNodes>
            0 -1 113 2.2920075571164489e-04</internalNodes>
          <leafValues>
            -4.6200373768806458e-01 4.3254896998405457e-01</leafValues></_>
        <_>
          <internalNodes>
            0 -1 90 2.0076826331205666e-04</internalNodes>
          <leafValues>
            2.1586073935031891e-01 -8.1642049551010132e-01</leafValues></_>
        <_>
          <internalNodes>
            0 -1 59 -1.9774879910983145e-04</internalNodes>
          <leafValues>
            -7.6705831289291382e-01 2.1759030222892761e-01</leafValues></_></weakClassifiers></_>
    <!-- stage 9 -->
    <_>
      <maxWeakCount>10</maxWeakCount>
      <stageThreshold>-1.8284230232238770e+00</stageThreshold>
      <weakClassifiers>
        <_>
          <internalNodes>
            0 -1 132 -7.0904311724007130e-04</internalNodes>
          <leafValues>
            7.4012476205825806e-01 -4.8902821540832520e-01</leafValues></_>
        <_>
          <internalNodes>
            0 -1 46 -2.3039674386382103e-02</internalNodes>
          <leafValues>
            6.0267668962478638e-01 -4.6236807107925415e-01</leafValues></_>
        <_>
          <internalNodes>
            0 -1 76 -2.7105002664029598e-04</internalNodes>
          <leafValues>
            4.0067979693412781e-01 -7.4669188261032104e-01</leafValues></_>
        <_>
          <internalNodes>
            0 -1 107 -1.6996837221086025e-03</internalNodes>
          <leafValues>
            2.9774862527847290e-01 -7.3256504535675049e-01</leafValues></_>
        <_>
          <internalNodes>
            0 -1 169 -1.7678554286248982e-04</internalNodes>
          <leafValues>
            4.3038043379783630e-01 -4.7219318151473999e-01</leafValues></_>
        <_>
          <internalNodes>
            0 -1 145 -1.2550663086585701e-04</internalNodes>
          <leafValues>
            3.7127724289894104e-01 -6.1503070592880249e-01</leafValues></_>
        <_>
          <internalNodes>
            0 -1 49 -1.2333608232438564e-02</internalNodes>
          <leafValues>
            2.4034255743026733e-01 -8.1814694404602051e-01</leafValues></_>
        <_>
          <internalNodes>
            0 -1 13 5.2940975874662399e-03</internalNodes>
          <leafValues>
            1.8253636360168457e-01 -8.0608063936233521e-01</leafValues></_>
        <_>
          <internalNodes>
            0 -1 94 2.5057643651962280e-03</internalNodes>
          <leafValues>
            -3.3200582861900330e-01 7.3075246810913086e-01</leafValues></_>
        <_>
          <internalNodes>
            0 -1 79 2.5448232190683484e-04</internalNodes>
          <leafValues>
            -6.4641165733337402e-01 3.9760386943817139e-01</leafValues></_></weakClassifiers></_>
    <!-- stage 10 -->
    <_>
      <maxWeakCount>11</maxWeakCount>
      <stageThreshold>-1.5928324460983276e+00</stageThreshold>
      <weakClassifiers>
        <_>
          <internalNodes>
            0 -1 92 -3.4208506345748901e-02</internalNodes>
          <leafValues>
            6.8743818998336792e-01 -5.0084888935089111e-01</leafValues></_>
        <_>
          <internalNodes>
            0 -1 179 -1.6211332695093006e-04</internalNodes>
          <leafValues>
            5.0201803445816040e-01 -6.7018020153045654e-01</leafValues></_>
        <_>
          <internalNodes>
            0 -1 158 3.1371120712719858e-05</internalNodes>
          <leafValues>
            -5.3968906402587891e-01 4.0273952484130859e-01</leafValues></_>
        <_>
          <internalNodes>
            0 -1 148 1.3566217385232449e-03</internalNodes>
          <leafValues>
            2.6942214369773865e-01 -8.8418090343475342e-01</leafValues></_>
        <_>
          <internalNodes>
            0 -1 8 -8.8813758338801563e-05</internalNodes>
          <leafValues>
            -6.9623732566833496e-01 2.7241724729537964e-01</leafValues></_>
        <_>
          <internalNodes>
            0 -1 102 1.7096683382987976e-02</internalNodes>
          <leafValues>
            2.2366675734519958e-01 -7.4348568916320801e-01</leafValues></_>
        <_>
          <internalNodes>
            0 -1 103 2.9235403053462505e-04</internalNodes>
          <leafValues>
            -4.0471208095550537e-01 4.3805274367332458e-01</leafValues></_>
        <_>
          <internalNodes>
            0 -1 133 4.0205504046753049e-04</internalNodes>
          <leafValues>
            -3.5525330901145935e-01 5.3243225812911987e-01</leafValues></_>
        <_>
          <internalNodes>
            0 -1 23 -6.2319057178683579e-05</internalNodes>
          <leafValues>
            -7.4358582496643066e-01 2.9134857654571533e-01</leafValues></_>
        <_>
          <internalNodes>
            0 -1 7 -4.1214767406927422e-05</internalNodes>
          <leafValues>
            -5.5991625785827637e-01 2.5711548328399658e-01</leafValues></_>
        <_>
          <internalNodes>
            0 -1 108 -9.1979943681508303e-04</internalNodes>
          <leafValues>
            4.2050448060035706e-01 -4.0989321470260620e-01</leafValues></_></weakClassifiers></_>
    <!-- stage 11 -->
    <_>
      <maxWeakCount>13</maxWeakCount>
      <stageThreshold>-1.5730621814727783e+00</stageThreshold>
      <weakClassifiers>
        <_>
          <internalNodes>
            0 -1 29 1.0638892650604248e-02</internalNodes>
          <leafValues>
            -5.8790171146392822e-01 6.6386556625366211e-01</leafValues></_>
        <_>
          <internalNodes>
            0 -1 167 -3.1854416010901332e-04</internalNodes>
          <leafValues>
            4.1916033625602722e-01 -7.1524745225906372e-01</leafValues></_>
        <_>
          <internalNodes>
            0 -1 163 3.5238644341006875e-04</internalNodes>
          <leafValues>
            2.7122947573661804e-01 -7.9990851879119873e-01</leafValues></_>
        <_>
          <internalNodes>
            0 -1 11 2.6181987777817994e-05</internalNodes>
          <leafValues>
            -6.2131339311599731e-01 3.2658687233924866e-01</leafValues></_>
        <_>
          <internalNodes>
            0 -1 146 1.0462719947099686e-03</internalNodes>
          <leafValues>
            2.3819285631179810e-01 -7.5742328166961670e-01</leafValues></_>
        <_>
          <internalNodes>
            0 -1 139 -1.1638514697551727e-03</internalNodes>
          <leafValues>
            2.7719014883041382e-01 -5.7330918312072754e-01</leafValues></_>
        <_>
          <internalNodes>
            0 -1 67 -1.5301272273063660e-02</internalNodes>
          <leafValues>
            8.3528399467468262e-01 -2.2292049229145050e-01</leafValues></_>
        <_>
          <internalNodes>
            0 -1 52 1.9462412456050515e-04</internalNodes>
          <leafValues>
            -3.0521249771118164e-01 5.3576862812042236e-01</leafValues></_>
        <_>
          <internalNodes>
            0 -1 114 -1.1036138236522675e-01</internalNodes>
          <leafValues>
            8.2445055246353149e-01 -2.0366546511650085e-01</leafValues></_>
        <_>
          <internalNodes>
            0 -1 19 -2.4481387808918953e-03</internalNodes>
          <leafValues>
            -9.1576659679412842e-01 2.3098246753215790e-01</leafValues></_>
        <_>
          <internalNodes>
            0 -1 123 4.1972059989348054e-04</internalNodes>
          <leafValues>
            -4.8360353708267212e-01 2.6539754867553711e-01</leafValues></_>
        <_>
          <internalNodes>
            0 -1 147 -7.7310623601078987e-04</internalNodes>
          <leafValues>
            -6.3938486576080322e-01 2.6951536536216736e-01</leafValues></_>
        <_>
          <internalNodes>
            0 -1 104 3.9924641896504909e-05</internalNodes>
          <leafValues>
            -3.7857118248939514e-01 4.1873970627784729e-01</leafValues></_></weakClassifiers></_>
    <!-- stage 12 -->
    <_>
      <maxWeakCount>9</maxWeakCount>
      <stageThreshold>-1.4361729621887207e+00</stageThreshold>
      <weakClassifiers>
        <_>
          <internalNodes>
            0 -1 44 2.0978350949008018e-04</internalNodes>
          <leafValues>
            -7.6528120040893555e-01 5.9865659475326538e-01</leafValues></_>
        <_>
          <internalNodes>
            0 -1 40 -4.4144090497866273e-04</internalNodes>
          <leafValues>
            -8.2008171081542969e-01 3.4724283218383789e-01</leafValues></_>
        <_>
          <internalNodes>
            0 -1 30 -6.4216917380690575e-03</internalNodes>
          <leafValues>
            5.7381409406661987e-01 -4.4946932792663574e-01</leafValues></_>
        <_>
          <internalNodes>
            0 -1 173 -3.6666780943050981e-04</internalNodes>
          <leafValues>
            3.5779699683189392e-01 -6.5883398056030273e-01</leafValues></_>
        <_>
          <internalNodes>
            0 -1 97 -8.2479586126282811e-04</internalNodes>
          <leafValues>
            3.2914948463439941e-01 -6.0911989212036133e-01</leafValues></_>
        <_>
          <internalNodes>
            0 -1 175 -3.7454406265169382e-04</internalNodes>
          <leafValues>
            -6.0482645034790039e-01 2.9652845859527588e-01</leafValues></_>
        <_>
          <internalNodes>
            0 -1 66 3.5481392405927181e-03</internalNodes>
          <leafValues>
            -2.7227249741554260e-01 7.0980697870254517e-01</leafValues></_>
        <_>
          <internalNodes>
            0 -1 22 4.1919288923963904e-04</internalNodes>
          <leafValues>
            3.7795522809028625e-01 -5.3082716464996338e-01</leafValues></_>
        <_>
          <internalNodes>
            0 -1 28 -5.2339816465973854e-04</internalNodes>
          <leafValues>
            -7.1448910236358643e-01 2.7829575538635254e-01</leafValues></_></weakClassifiers></_>
    <!-- stage 13 -->
    <_>
      <maxWeakCount>12</maxWeakCount>
      <stageThreshold>-1.5414468050003052e+00</stageThreshold>
      <weakClassifiers>
        <_>
          <internalNodes>
            0 -1 2 9.9678561091423035e-03</internalNodes>
          <leafValues>
            -3.1122449040412903e-01 7.8921568393707275e-01</leafValues></_>
        <_>
          <internalNodes>
            0 -1 174 3.3821150282165036e-05</internalNodes>
          <leafValues>
            -7.6559984683990479e-01 4.1822186112403870e-01</leafValues></_>
        <_>
          <internalNodes>
            0 -1 176 -1.0309171921107918e-04</internalNodes>
          <leafValues>
            -7.0508724451065063e-01 3.2326653599739075e-01</leafValues></_>
        <_>
          <internalNodes>
            0 -1 176 3.6820542300119996e-04</internalNodes>
          <leafValues>
            2.7884936332702637e-01 -7.6460862159729004e-01</leafValues></_>
        <_>
          <internalNodes>
            0 -1 71 5.8999219618272036e-05</internalNodes>
          <leafValues>
            -6.1216801404953003e-01 2.9337972402572632e-01</leafValues></_>
        <_>
          <internalNodes>
            0 -1 50 5.6993641192093492e-04</internalNodes>
          <leafValues>
            -4.6736884117126465e-01 3.8446557521820068e-01</leafValues></_>
        <_>
          <internalNodes>
            0 -1 77 2.3397039331030101e-04</internalNodes>
          <leafValues>
            -5.7641333341598511e-01 3.1607666611671448e-01</leafValues></_>
        <_>
          <internalNodes>
            0 -1 127 3.3926889300346375e-03</internalNodes>
          <leafValues>
            -3.3575940132141113e-01 5.8876782655715942e-01</leafValues></_>
        <_>
          <internalNodes>
            0 -1 130 3.3298810012638569e-04</internalNodes>
          <leafValues>
            -4.7473257780075073e-01 3.7008631229400635e-01</leafValues></_>
        <_>
          <internalNodes>
            0 -1 33 -1.6646584495902061e-02</internalNodes>
          <leafValues>
            1.9064858555793762e-01 -7.6607209444046021e-01</leafValues></_>
        <_>
          <internalNodes>
            0 -1 112 1.4670791279058903e-04</internalNodes>
          <leafValues>
            -4.8640954494476318e-01 3.1879174709320068e-01</leafValues></_>
        <_>
          <internalNodes>
            0 -1 135 -2.1520638838410378e-03</internalNodes>
          <leafValues>
            -8.6024862527847290e-01 1.8335486948490143e-01</leafValues></_></weakClassifiers></_>
    <!-- stage 14 -->
    <_>
      <maxWeakCount>10</maxWeakCount>
      <stageThreshold>-1.4379682540893555e+00</stageThreshold>
      <weakClassifiers>
        <_>
          <internalNodes>
            0 -1 64 4.8434964264743030e-04</internalNodes>
          <leafValues>
            -7.4479168653488159e-01 5.6414473056793213e-01</leafValues></_>
        <_>
          <internalNodes>
            0 -1 69 1.6634205530863255e-04</internalNodes>
          <leafValues>
            -6.8371391296386719e-01 3.9160141348838806e-01</leafValues></_>
        <_>
          <internalNodes>
            0 -1 134 5.3882680367678404e-04</internalNodes>
          <leafValues>
            -6.2967079877853394e-01 4.8071050643920898e-01</leafValues></_>
        <_>
          <internalNodes>
            0 -1 83 -1.2089480878785253e-04</internalNodes>
          <leafValues>
            -7.7264916896820068e-01 2.3306679725646973e-01</leafValues></_>
        <_>
          <internalNodes>
            0 -1 170 -2.2756854014005512e-04</internalNodes>
          <leafValues>
            -7.5503158569335938e-01 2.2060042619705200e-01</leafValues></_>
        <_>
          <internalNodes>
            0 -1 106 2.4137454602168873e-05</internalNodes>
          <leafValues>
            -5.3493267297744751e-01 3.2910427451133728e-01</leafValues></_>
        <_>
          <internalNodes>
            0 -1 61 -1.0541528172325343e-04</internalNodes>
          <leafValues>
            -6.7011398077011108e-01 2.5455838441848755e-01</leafValues></_>
        <_>
          <internalNodes>
            0 -1 110 3.2313418341800570e-04</internalNodes>
          <leafValues>
            -3.4218478202819824e-01 5.5129134654998779e-01</leafValues></_>
        <_>
          <internalNodes>
            0 -1 12 9.1991398949176073e-04</internalNodes>
          <leafValues>
            -3.8874131441116333e-01 5.0314581394195557e-01</leafValues></_>
        <_>
          <internalNodes>
            0 -1 183 -4.5404881238937378e-03</internalNodes>
          <leafValues>
            -8.3611774444580078e-01 1.8468198180198669e-01</leafValues></_></weakClassifiers></_>
    <!-- stage 15 -->
    <_>
      <maxWeakCount>12</maxWeakCount>
      <stageThreshold>-1.3323645591735840e+00</stageThreshold>
      <weakClassifiers>
        <_>
          <internalNodes>
            0 -1 185 -1.8191956041846424e-04</internalNodes>
          <leafValues>
            6.9322711229324341e-01 -4.9664428830146790e-01</leafValues></_>
        <_>
          <internalNodes>
            0 -1 31 1.0715115815401077e-02</internalNodes>
          <leafValues>
            -3.9745476841926575e-01 6.6055047512054443e-01</leafValues></_>
        <_>
          <internalNodes>
            0 -1 36 -1.1576269571378361e-05</internalNodes>
          <leafValues>
            4.6510234475135803e-01 -4.4991931319236755e-01</leafValues></_>
        <_>
          <internalNodes>
            0 -1 151 6.2712054932489991e-04</internalNodes>
          <leafValues>
            2.0614348351955414e-01 -9.1325783729553223e-01</leafValues></_>
        <_>
          <internalNodes>
            0 -1 131 2.7568434597924352e-04</internalNodes>
          <leafValues>
            -5.7578301429748535e-01 2.7974990010261536e-01</leafValues></_>
        <_>
          <internalNodes>
            0 -1 39 -4.0240117232315242e-04</internalNodes>
          <leafValues>
            -7.8990012407302856e-01 1.8012170493602753e-01</leafValues></_>
        <_>
          <internalNodes>
            0 -1 137 -1.0253967484459281e-03</internalNodes>
          <leafValues>
            2.8340077400207520e-01 -5.1694220304489136e-01</leafValues></_>
        <_>
          <internalNodes>
            0 -1 86 2.9108818125678226e-05</internalNodes>
          <leafValues>
            -6.2405002117156982e-01 1.8855586647987366e-01</leafValues></_>
        <_>
          <internalNodes>
            0 -1 15 -3.8370131514966488e-03</internalNodes>
          <leafValues>
            -5.7877951860427856e-01 2.5951021909713745e-01</leafValues></_>
        <_>
          <internalNodes>
            0 -1 68 -1.3530015945434570e-01</internalNodes>
          <leafValues>
            -7.2417563199996948e-01 1.8679223954677582e-01</leafValues></_>
        <_>
          <internalNodes>
            0 -1 58 -1.6685683280229568e-02</internalNodes>
          <leafValues>
            1.4849115908145905e-01 -7.6660442352294922e-01</leafValues></_>
        <_>
          <internalNodes>
            0 -1 27 -4.8253485147142783e-05</internalNodes>
          <leafValues>
            -7.3692220449447632e-01 1.5140698850154877e-01</leafValues></_></weakClassifiers></_>
    <!-- stage 16 -->
    <_>
      <maxWeakCount>13</maxWeakCount>
      <stageThreshold>-1.8013974428176880e+00</stageThreshold>
      <weakClassifiers>
        <_>
          <internalNodes>
            0 -1 161 2.0920564566040412e-05</internalNodes>
          <leafValues>
            -6.2295079231262207e-01 6.3309353590011597e-01</leafValues></_>
        <_>
          <internalNodes>
            0 -1 88 -6.9832531735301018e-03</internalNodes>
          <leafValues>
            7.1041953563690186e-01 -3.5161453485488892e-01</leafValues></_>
        <_>
          <internalNodes>
            0 -1 166 3.2951604225672781e-05</internalNodes>
          <leafValues>
            -5.1793646812438965e-01 4.4617563486099243e-01</leafValues></_>
        <_>
          <internalNodes>
            0 -1 154 -6.7847882746718824e-05</internalNodes>
          <leafValues>
            2.8866681456565857e-01 -6.3621342182159424e-01</leafValues></_>
        <_>
          <internalNodes>
            0 -1 150 -6.5300217829644680e-03</internalNodes>
          <leafValues>
            6.1190730333328247e-01 -3.2835221290588379e-01</leafValues></_>
        <_>
          <internalNodes>
            0 -1 91 -5.5662833619862795e-04</internalNodes>
          <leafValues>
            -7.7717727422714233e-01 1.9771029055118561e-01</leafValues></_>
        <_>
          <internalNodes>
            0 -1 128 4.3135780841112137e-02</internalNodes>
          <leafValues>
            1.8485432863235474e-01 -8.0678874254226685e-01</leafValues></_>
        <_>
          <internalNodes>
            0 -1 136 -1.0315212421119213e-03</internalNodes>
          <leafValues>
            4.0104436874389648e-01 -4.2863288521766663e-01</leafValues></_>
        <_>
          <internalNodes>
            0 -1 62 8.8343565585091710e-04</internalNodes>
          <leafValues>
            -5.1930183172225952e-01 3.4276655316352844e-01</leafValues></_>
        <_>
          <internalNodes>
            0 -1 109 3.5559313255362213e-04</internalNodes>
          <leafValues>
            -4.3477550148963928e-01 3.5710573196411133e-01</leafValues></_>
        <_>
          <internalNodes>
            0 -1 182 -2.1400250261649489e-04</internalNodes>
          <leafValues>
            -5.7422739267349243e-01 3.2730984687805176e-01</leafValues></_>
        <_>
          <internalNodes>
            0 -1 51 -1.1976459063589573e-03</internalNodes>
          <leafValues>
            2.3053580522537231e-01 -6.2199926376342773e-01</leafValues></_>
        <_>
          <internalNodes>
            0 -1 159 4.8801008961163461e-04</internalNodes>
          <leafValues>
            1.9451168179512024e-01 -6.7891716957092285e-01</leafValues></_></weakClassifiers></_>
    <!-- stage 17 -->
    <_>
      <maxWeakCount>13</maxWeakCount>
      <stageThreshold>-1.5451650619506836e+00</stageThreshold>
      <weakClassifiers>
        <_>
          <internalNodes>
            0 -1 171 -1.0025750380009413e-03</internalNodes>
          <leafValues>
            6.0661447048187256e-01 -6.5853661298751831e-01</leafValues></_>
        <_>
          <internalNodes>
            0 -1 45 -5.8250860311090946e-03</internalNodes>
          <leafValues>
            5.6047195196151733e-01 -4.1670352220535278e-01</leafValues></_>
        <_>
          <internalNodes>
            0 -1 142 1.0071267606690526e-03</internalNodes>
          <leafValues>
            -5.1039838790893555e-01 3.6205703020095825e-01</leafValues></_>
        <_>
          <internalNodes>
            0 -1 9 1.2389499715936836e-05</internalNodes>
          <leafValues>
            -5.5663675069808960e-01 3.3211454749107361e-01</leafValues></_>
        <_>
          <internalNodes>
            0 -1 100 -6.8952310830354691e-03</internalNodes>
          <leafValues>
            5.1133990287780762e-01 -3.7152034044265747e-01</leafValues></_>
        <_>
          <internalNodes>
            0 -1 87 1.1161405382154044e-05</internalNodes>
          <leafValues>
            2.0054909586906433e-01 -6.6646486520767212e-01</leafValues></_>
        <_>
          <internalNodes>
            0 -1 75 -4.5654753921553493e-04</internalNodes>
          <leafValues>
            -6.7785692214965820e-01 2.1060186624526978e-01</leafValues></_>
        <_>
          <internalNodes>
            0 -1 98 5.9678772231563926e-04</internalNodes>
          <leafValues>
            -3.3591833710670471e-01 4.4569337368011475e-01</leafValues></_>
        <_>
          <internalNodes>
            0 -1 70 6.2174675986170769e-04</internalNodes>
          <leafValues>
            1.7148500680923462e-01 -9.1979110240936279e-01</leafValues></_>
        <_>
          <internalNodes>
            0 -1 188 -4.5860603451728821e-02</internalNodes>
          <leafValues>
            -8.1080514192581177e-01 1.3804450631141663e-01</leafValues></_>
        <_>
          <internalNodes>
            0 -1 99 1.5293643809854984e-03</internalNodes>
          <leafValues>
            1.5690098702907562e-01 -7.6032322645187378e-01</leafValues></_>
        <_>
          <internalNodes>
            0 -1 120 -2.2520296624861658e-05</internalNodes>
          <leafValues>
            2.8952240943908691e-01 -4.8727855086326599e-01</leafValues></_>
        <_>
          <internalNodes>
            0 -1 56 2.9414515011012554e-03</internalNodes>
          <leafValues>
            2.7882304787635803e-01 -5.4289048910140991e-01</leafValues></_></weakClassifiers></_>
    <!-- stage 18 -->
    <_>
      <maxWeakCount>13</maxWeakCount>
      <stageThreshold>-1.6919001340866089e+00</stageThreshold>
      <weakClassifiers>
        <_>
          <internalNodes>
            0 -1 164 2.2353000531438738e-05</internalNodes>
          <leafValues>
            -5.5696201324462891e-01 5.8969801664352417e-01</leafValues></_>
        <_>
          <internalNodes>
            0 -1 164 4.5087849139235914e-04</internalNodes>
          <leafValues>
            3.3431169390678406e-01 -8.9077728986740112e-01</leafValues></_>
        <_>
          <internalNodes>
            0 -1 4 7.4027399532496929e-03</internalNodes>
          <leafValues>
            -3.8892999291419983e-01 6.1759024858474731e-01</leafValues></_>
        <_>
          <internalNodes>
            0 -1 180 -5.6953227613121271e-05</internalNodes>
          <leafValues>
            -5.7743990421295166e-01 3.5032579302787781e-01</leafValues></_>
        <_>
          <internalNodes>
            0 -1 178 4.7781819012016058e-04</internalNodes>
          <leafValues>
            -5.5310302972793579e-01 3.0324754118919373e-01</leafValues></_>
        <_>
          <internalNodes>
            0 -1 136 -6.2001566402614117e-04</internalNodes>
          <leafValues>
            3.8081869482994080e-01 -4.9821382761001587e-01</leafValues></_>
        <_>
          <internalNodes>
            0 -1 37 -3.5316321998834610e-02</internalNodes>
          <leafValues>
            2.6684755086898804e-01 -5.5496710538864136e-01</leafValues></_>
        <_>
          <internalNodes>
            0 -1 157 5.9693426010198891e-05</internalNodes>
          <leafValues>
            -5.0621128082275391e-01 3.5023343563079834e-01</leafValues></_>
        <_>
          <internalNodes>
            0 -1 16 -1.3636956282425672e-04</internalNodes>
          <leafValues>
            -6.7987954616546631e-01 2.2156412899494171e-01</leafValues></_>
        <_>
          <internalNodes>
            0 -1 121 1.6344954201485962e-04</internalNodes>
          <leafValues>
            -4.2016100883483887e-01 3.6456340551376343e-01</leafValues></_>
        <_>
          <internalNodes>
            0 -1 117 3.0172492843121290e-03</internalNodes>
          <leafValues>
            2.3014353215694427e-01 -7.2917252779006958e-01</leafValues></_>
        <_>
          <internalNodes>
            0 -1 93 -5.6075269822031260e-04</internalNodes>
          <leafValues>
            -7.3557597398757935e-01 1.9428099691867828e-01</leafValues></_>
        <_>
          <internalNodes>
            0 -1 105 1.7467669676989317e-03</internalNodes>
          <leafValues>
            -3.4458160400390625e-01 4.5438677072525024e-01</leafValues></_></weakClassifiers></_>
    <!-- stage 19 -->
    <_>
      <maxWeakCount>13</maxWeakCount>
      <stageThreshold>-1.3638612031936646e+00</stageThreshold>
      <weakClassifiers>
        <_>
          <internalNodes>
            0 -1 48 1.9119996577501297e-03</internalNodes>
          <leafValues>
            -5.3237408399581909e-01 6.6666668653488159e-01</leafValues></_>
        <_>
          <internalNodes>
            0 -1 35 -3.0507188057526946e-04</internalNodes>
          <leafValues>
            4.2506942152976990e-01 -7.1762514114379883e-01</leafValues></_>
        <_>
          <internalNodes>
            0 -1 118 -4.2834982275962830e-02</internalNodes>
          <leafValues>
            8.3607649803161621e-01 -2.8244662284851074e-01</leafValues></_>
        <_>
          <internalNodes>
            0 -1 20 -1.8462480511516333e-04</internalNodes>
          <leafValues>
            -5.0511294603347778e-01 4.0124785900115967e-01</leafValues></_>
        <_>
          <internalNodes>
            0 -1 72 -7.0556445280089974e-04</internalNodes>
          <leafValues>
            3.0006542801856995e-01 -6.4674717187881470e-01</leafValues></_>
        <_>
          <internalNodes>
            0 -1 14 3.4544584341347218e-03</internalNodes>
          <leafValues>
            -2.8148746490478516e-01 7.1589142084121704e-01</leafValues></_>
        <_>
          <internalNodes>
            0 -1 184 -6.4986717188730836e-04</internalNodes>
          <leafValues>
            -5.4425895214080811e-01 3.1128430366516113e-01</leafValues></_>
        <_>
          <internalNodes>
            0 -1 115 -1.7211905214935541e-03</internalNodes>
          <leafValues>
            -5.8997523784637451e-01 2.8551298379898071e-01</leafValues></_>
        <_>
          <internalNodes>
            0 -1 140 -5.6479017075616866e-05</internalNodes>
          <leafValues>
            4.2276695370674133e-01 -3.8030317425727844e-01</leafValues></_>
        <_>
          <internalNodes>
            0 -1 141 1.8028960330411792e-03</internalNodes>
          <leafValues>
            -4.6658247709274292e-01 3.4563905000686646e-01</leafValues></_>
        <_>
          <internalNodes>
            0 -1 119 -2.6925347745418549e-02</internalNodes>
          <leafValues>
            -7.8652328252792358e-01 2.0243760943412781e-01</leafValues></_>
        <_>
          <internalNodes>
            0 -1 122 1.0591901809675619e-04</internalNodes>
          <leafValues>
            -4.7842150926589966e-01 3.5567918419837952e-01</leafValues></_>
        <_>
          <internalNodes>
            0 -1 54 2.9871953302063048e-04</internalNodes>
          <leafValues>
            2.4702143669128418e-01 -6.7007470130920410e-01</leafValues></_></weakClassifiers></_></stages>
  <features>
    <_>
      <rects>
        <_>
          0 1 24 10 -1.</_>
        <_>
          0 1 12 5 2.</_>
        <_>
          12 6 12 5 2.</_></rects>
      <tilted>0</tilted></_>
    <_>
      <rects>
        <_>
          0 4 9 19 -1.</_>
        <_>
          3 4 3 19 3.</_></rects>
      <tilted>0</tilted></_>
    <_>
      <rects>
        <_>
          0 5 2 18 -1.</_>
        <_>
          1 5 1 18 2.</_></rects>
      <tilted>0</tilted></_>
    <_>
      <rects>
        <_>
          0 6 12 16 -1.</_>
        <_>
          4 6 4 16 3.</_></rects>
      <tilted>0</tilted></_>
    <_>
      <rects>
        <_>
          0 7 3 14 -1.</_>
        <_>
          1 7 1 14 3.</_></rects>
      <tilted>0</tilted></_>
    <_>
      <rects>
        <_>
          0 7 2 16 -1.</_>
        <_>
          1 7 1 16 2.</_></rects>
      <tilted>0</tilted></_>
    <_>
      <rects>
        <_>
          1 11 9 10 -1.</_>
        <_>
          4 11 3 10 3.</_></rects>
      <tilted>0</tilted></_>
    <_>
      <rects>
        <_>
          1 17 3 3 -1.</_>
        <_>
          2 17 1 3 3.</_></rects>
      <tilted>0</tilted></_>
    <_>
      <rects>
        <_>
          2 6 6 1 -1.</_>
        <_>
          4 6 2 1 3.</_></rects>
      <tilted>0</tilted></_>
    <_>
      <rects>
        <_>
          2 8 6 2 -1.</_>
        <_>
          4 8 2 2 3.</_></rects>
      <tilted>0</tilted></_>
    <_>
      <rects>
        <_>
          2 12 12 8 -1.</_>
        <_>
          2 12 6 4 2.</_>
        <_>
          8 16 6 4 2.</_></rects>
      <tilted>0</tilted></_>
    <_>
      <rects>
        <_>
          2 13 4 3 -1.</_>
        <_>
          3 13 2 3 2.</_></rects>
      <tilted>0</tilted></_>
    <_>
      <rects>
        <_>
          2 16 7 4 -1.</_>
        <_>
          2 18 7 2 2.</_></rects>
      <tilted>0</tilted></_>
    <_>
      <rects>
        <_>
          2 19 6 4 -1.</_>
        <_>
          5 19 3 4 2.</_></rects>
      <tilted>0</tilted></_>
    <_>
      <rects>
        <_>
          2 19 4 4 -1.</_>
        <_>
          2 20 4 2 2.</_></rects>
      <tilted>0</tilted></_>
    <_>
      <rects>
        <_>
          3 0 27 1 -1.</_>
        <_>
          12 0 9 1 3.</_></rects>
      <tilted>0</tilted></_>
    <_>
      <rects>
        <_>
          3 12 3 2 -1.</_>
        <_>
          4 12 1 2 3.</_></rects>
      <tilted>0</tilted></_>
    <_>
      <rects>
        <_>
          3 16 10 3 -1.</_>
        <_>
          8 16 5 3 2.</_></rects>
      <tilted>0</tilted></_>
    <_>
      <rects>
        <_>
          3 16 10 4 -1.</_>
        <_>
          8 16 5 4 2.</_></rects>
      <tilted>0</tilted></_>
    <_>
      <rects>
        <_>
          4 3 2 14 -1.</_>
        <_>
          5 3 1 14 2.</_></rects>
      <tilted>0</tilted></_>
    <_>
      <rects>
        <_>
          4 4 3 1 -1.</_>
        <_>
          5 5 1 1 3.</_></rects>
      <tilted>1</tilted></_>
    <_>
      <rects>
        <_>
          4 6 6 1 -1.</_>
        <_>
          6 6 2 1 3.</_></rects>
      <tilted>0</tilted></_>
    <_>
      <rects>
        <_>
          4 7 4 6 -1.</_>
        <_>
          5 7 2 6 2.</_></rects>
      <tilted>0</tilted></_>
    <_>
      <rects>
        <_>
          4 9 3 1 -1.</_>
        <_>
          5 9 1 1 3.</_></rects>
      <tilted>0</tilted></_>
    <_>
      <rects>
        <_>
          4 10 6 7 -1.</_>
        <_>
          6 10 2 7 3.</_></rects>
      <tilted>0</tilted></_>
    <_>
      <rects>
        <_>
          4 10 9 4 -1.</_>
        <_>
          7 13 3 4 3.</_></rects>
      <tilted>1</tilted></_>
    <_>
      <rects>
        <_>
          4 10 18 8 -1.</_>
        <_>
          13 10 9 8 2.</_></rects>
      <tilted>0</tilted></_>
    <_>
      <rects>
        <_>
          4 11 3 1 -1.</_>
        <_>
          5 11 1 1 3.</_></rects>
      <tilted>0</tilted></_>
    <_>
      <rects>
        <_>
          4 11 3 3 -1.</_>
        <_>
          5 12 1 1 9.</_></rects>
      <tilted>0</tilted></_>
    <_>
      <rects>
        <_>
          4 12 6 4 -1.</_>
        <_>
          6 12 2 4 3.</_></rects>
      <tilted>0</tilted></_>
    <_>
      <rects>
        <_>
          4 12 6 2 -1.</_>
        <_>
          4 12 6 1 2.</_></rects>
      <tilted>1</tilted></_>
    <_>
      <rects>
        <_>
          4 13 6 4 -1.</_>
        <_>
          3 14 6 2 2.</_></rects>
      <tilted>1</tilted></_>
    <_>
      <rects>
        <_>
          5 3 24 15 -1.</_>
        <_>
          11 3 12 15 2.</_></rects>
      <tilted>0</tilted></_>
    <_>
      <rects>
        <_>
          5 3 24 18 -1.</_>
        <_>
          11 3 12 18 2.</_></rects>
      <tilted>0</tilted></_>
    <_>
      <rects>
        <_>
          5 4 3 2 -1.</_>
        <_>
          5 5 3 1 2.</_></rects>
      <tilted>0</tilted></_>
    <_>
      <rects>
        <_>
          5 5 2 1 -1.</_>
        <_>
          5 5 1 1 2.</_></rects>
      <tilted>1</tilted></_>
    <_>
      <rects>
        <_>
          5 5 2 2 -1.</_>
        <_>
          6 5 1 2 2.</_></rects>
      <tilted>0</tilted></_>
    <_>
      <rects>
        <_>
          5 5 24 8 -1.</_>
        <_>
          11 5 12 8 2.</_></rects>
      <tilted>0</tilted></_>
    <_>
      <rects>
        <_>
          5 6 1 2 -1.</_>
        <_>
          5 7 1 1 2.</_></rects>
      <tilted>0</tilted></_>
    <_>
      <rects>
        <_>
          5 6 6 1 -1.</_>
        <_>
          7 6 2 1 3.</_></rects>
      <tilted>0</tilted></_>
    <_>
      <rects>
        <_>
          5 7 3 3 -1.</_>
        <_>
          6 8 1 1 9.</_></rects>
      <tilted>0</tilted></_>
    <_>
      <rects>
        <_>
          5 7 3 2 -1.</_>
        <_>
          6 7 1 2 3.</_></rects>
      <tilted>0</tilted></_>
    <_>
      <rects>
        <_>
          5 7 24 2 -1.</_>
        <_>
          11 7 12 2 2.</_></rects>
      <tilted>0</tilted></_>
    <_>
      <rects>
        <_>
          5 8 24 13 -1.</_>
        <_>
          11 8 12 13 2.</_></rects>
      <tilted>0</tilted></_>
    <_>
      <rects>
        <_>
          5 9 1 2 -1.</_>
        <_>
          5 10 1 1 2.</_></rects>
      <tilted>0</tilted></_>
    <_>
      <rects>
        <_>
          5 9 5 2 -1.</_>
        <_>
          5 9 5 1 2.</_></rects>
      <tilted>1</tilted></_>
    <_>
      <rects>
        <_>
          5 9 7 4 -1.</_>
        <_>
          5 9 7 2 2.</_></rects>
      <tilted>1</tilted></_>
    <_>
      <rects>
        <_>
          5 11 3 4 -1.</_>
        <_>
          5 13 3 2 2.</_></rects>
      <tilted>0</tilted></_>
    <_>
      <rects>
        <_>
          5 12 2 4 -1.</_>
        <_>
          5 14 2 2 2.</_></rects>
      <tilted>0</tilted></_>
    <_>
      <rects>
        <_>
          5 12 16 5 -1.</_>
        <_>
          13 12 8 5 2.</_></rects>
      <tilted>0</tilted></_>
    <_>
      <rects>
        <_>
          5 13 2 2 -1.</_>
        <_>
          5 14 2 1 2.</_></rects>
      <tilted>0</tilted></_>
    <_>
      <rects>
        <_>
          6 1 10 3 -1.</_>
        <_>
          5 2 10 1 3.</_></rects>
      <tilted>1</tilted></_>
    <_>
      <rects>
        <_>
          6 3 1 2 -1.</_>
        <_>
          6 4 1 1 2.</_></rects>
      <tilted>0</tilted></_>
    <_>
      <rects>
        <_>
          6 5 3 2 -1.</_>
        <_>
          6 6 3 1 2.</_></rects>
      <tilted>0</tilted></_>
    <_>
      <rects>
        <_>
          6 5 6 2 -1.</_>
        <_>
          9 5 3 2 2.</_></rects>
      <tilted>0</tilted></_>
    <_>
      <rects>
        <_>
          6 6 3 3 -1.</_>
        <_>
          7 7 1 1 9.</_></rects>
      <tilted>0</tilted></_>
    <_>
      <rects>
        <_>
          6 6 9 3 -1.</_>
        <_>
          5 7 9 1 3.</_></rects>
      <tilted>1</tilted></_>
    <_>
      <rects>
        <_>
          6 7 1 4 -1.</_>
        <_>
          6 9 1 2 2.</_></rects>
      <tilted>0</tilted></_>
    <_>
      <rects>
        <_>
          6 7 16 11 -1.</_>
        <_>
          14 7 8 11 2.</_></rects>
      <tilted>0</tilted></_>
    <_>
      <rects>
        <_>
          6 8 1 3 -1.</_>
        <_>
          6 9 1 1 3.</_></rects>
      <tilted>0</tilted></_>
    <_>
      <rects>
        <_>
          6 8 9 2 -1.</_>
        <_>
          9 8 3 2 3.</_></rects>
      <tilted>0</tilted></_>
    <_>
      <rects>
        <_>
          6 9 1 3 -1.</_>
        <_>
          6 10 1 1 3.</_></rects>
      <tilted>0</tilted></_>
    <_>
      <rects>
        <_>
          6 9 1 4 -1.</_>
        <_>
          6 11 1 2 2.</_></rects>
      <tilted>0</tilted></_>
    <_>
      <rects>
        <_>
          6 9 2 2 -1.</_>
        <_>
          6 10 2 1 2.</_></rects>
      <tilted>0</tilted></_>
    <_>
      <rects>
        <_>
          6 11 2 2 -1.</_>
        <_>
          6 12 2 1 2.</_></rects>
      <tilted>0</tilted></_>
    <_>
      <rects>
        <_>
          6 12 2 2 -1.</_>
        <_>
          6 13 2 1 2.</_></rects>
      <tilted>0</tilted></_>
    <_>
      <rects>
        <_>
          6 13 6 1 -1.</_>
        <_>
          8 13 2 1 3.</_></rects>
      <tilted>0</tilted></_>
    <_>
      <rects>
        <_>
          6 17 4 2 -1.</_>
        <_>
          8 17 2 2 2.</_></rects>
      <tilted>0</tilted></_>
    <_>
      <rects>
        <_>
          7 0 22 20 -1.</_>
        <_>
          18 0 11 20 2.</_></rects>
      <tilted>0</tilted></_>
    <_>
      <rects>
        <_>
          7 5 1 2 -1.</_>
        <_>
          7 6 1 1 2.</_></rects>
      <tilted>0</tilted></_>
    <_>
      <rects>
        <_>
          7 6 4 1 -1.</_>
        <_>
          8 6 2 1 2.</_></rects>
      <tilted>0</tilted></_>
    <_>
      <rects>
        <_>
          7 6 3 3 -1.</_>
        <_>
          8 7 1 1 9.</_></rects>
      <tilted>0</tilted></_>
    <_>
      <rects>
        <_>
          7 6 2 2 -1.</_>
        <_>
          7 6 1 2 2.</_></rects>
      <tilted>1</tilted></_>
    <_>
      <rects>
        <_>
          7 6 2 14 -1.</_>
        <_>
          7 6 1 7 2.</_>
        <_>
          8 13 1 7 2.</_></rects>
      <tilted>0</tilted></_>
    <_>
      <rects>
        <_>
          7 7 1 2 -1.</_>
        <_>
          7 8 1 1 2.</_></rects>
      <tilted>0</tilted></_>
    <_>
      <rects>
        <_>
          7 7 3 3 -1.</_>
        <_>
          8 8 1 1 9.</_></rects>
      <tilted>0</tilted></_>
    <_>
      <rects>
        <_>
          7 7 2 1 -1.</_>
        <_>
          7 7 1 1 2.</_></rects>
      <tilted>1</tilted></_>
    <_>
      <rects>
        <_>
          7 8 1 2 -1.</_>
        <_>
          7 9 1 1 2.</_></rects>
      <tilted>0</tilted></_>
    <_>
      <rects>
        <_>
          7 8 1 4 -1.</_>
        <_>
          7 10 1 2 2.</_></rects>
      <tilted>0</tilted></_>
    <_>
      <rects>
        <_>
          7 8 3 5 -1.</_>
        <_>
          8 8 1 5 3.</_></rects>
      <tilted>0</tilted></_>
    <_>
      <rects>
        <_>
          7 9 2 1 -1.</_>
        <_>
          7 9 1 1 2.</_></rects>
      <tilted>1</tilted></_>
    <_>
      <rects>
        <_>
          7 9 8 1 -1.</_>
        <_>
          9 9 4 1 2.</_></rects>
      <tilted>0</tilted></_>
    <_>
      <rects>
        <_>
          7 10 1 2 -1.</_>
        <_>
          7 11 1 1 2.</_></rects>
      <tilted>0</tilted></_>
    <_>
      <rects>
        <_>
          7 10 1 3 -1.</_>
        <_>
          7 11 1 1 3.</_></rects>
      <tilted>0</tilted></_>
    <_>
      <rects>
        <_>
          7 10 1 4 -1.</_>
        <_>
          7 12 1 2 2.</_></rects>
      <tilted>0</tilted></_>
    <_>
      <rects>
        <_>
          7 11 1 2 -1.</_>
        <_>
          7 12 1 1 2.</_></rects>
      <tilted>0</tilted></_>
    <_>
      <rects>
        <_>
          7 11 3 1 -1.</_>
        <_>
          8 11 1 1 3.</_></rects>
      <tilted>0</tilted></_>
    <_>
      <rects>
        <_>
          7 11 2 1 -1.</_>
        <_>
          7 11 1 1 2.</_></rects>
      <tilted>1</tilted></_>
    <_>
      <rects>
        <_>
          7 13 2 4 -1.</_>
        <_>
          8 13 1 4 2.</_></rects>
      <tilted>0</tilted></_>
    <_>
      <rects>
        <_>
          8 6 4 2 -1.</_>
        <_>
          9 7 2 2 2.</_></rects>
      <tilted>1</tilted></_>
    <_>
      <rects>
        <_>
          8 6 4 1 -1.</_>
        <_>
          10 6 2 1 2.</_></rects>
      <tilted>0</tilted></_>
    <_>
      <rects>
        <_>
          8 8 1 3 -1.</_>
        <_>
          7 9 1 1 3.</_></rects>
      <tilted>1</tilted></_>
    <_>
      <rects>
        <_>
          8 9 4 6 -1.</_>
        <_>
          8 9 4 3 2.</_></rects>
      <tilted>1</tilted></_>
    <_>
      <rects>
        <_>
          8 11 1 3 -1.</_>
        <_>
          7 12 1 1 3.</_></rects>
      <tilted>1</tilted></_>
    <_>
      <rects>
        <_>
          8 11 4 2 -1.</_>
        <_>
          9 11 2 2 2.</_></rects>
      <tilted>0</tilted></_>
    <_>
      <rects>
        <_>
          8 11 3 3 -1.</_>
        <_>
          9 11 1 3 3.</_></rects>
      <tilted>0</tilted></_>
    <_>
      <rects>
        <_>
          8 11 6 1 -1.</_>
        <_>
          10 11 2 1 3.</_></rects>
      <tilted>0</tilted></_>
    <_>
      <rects>
        <_>
          9 5 3 6 -1.</_>
        <_>
          10 5 1 6 3.</_></rects>
      <tilted>0</tilted></_>
    <_>
      <rects>
        <_>
          9 5 2 3 -1.</_>
        <_>
          9 6 2 1 3.</_></rects>
      <tilted>0</tilted></_>
    <_>
      <rects>
        <_>
          9 5 2 3 -1.</_>
        <_>
          8 6 2 1 3.</_></rects>
      <tilted>1</tilted></_>
    <_>
      <rects>
        <_>
          9 11 4 6 -1.</_>
        <_>
          7 13 4 2 3.</_></rects>
      <tilted>1</tilted></_>
    <_>
      <rects>
        <_>
          9 15 3 3 -1.</_>
        <_>
          8 16 3 1 3.</_></rects>
      <tilted>1</tilted></_>
    <_>
      <rects>
        <_>
          10 2 15 12 -1.</_>
        <_>
          15 2 5 12 3.</_></rects>
      <tilted>0</tilted></_>
    <_>
      <rects>
        <_>
          10 5 2 4 -1.</_>
        <_>
          10 6 2 2 2.</_></rects>
      <tilted>0</tilted></_>
    <_>
      <rects>
        <_>
          10 7 2 2 -1.</_>
        <_>
          11 7 1 2 2.</_></rects>
      <tilted>0</tilted></_>
    <_>
      <rects>
        <_>
          10 8 3 3 -1.</_>
        <_>
          11 9 1 1 9.</_></rects>
      <tilted>0</tilted></_>
    <_>
      <rects>
        <_>
          10 9 2 1 -1.</_>
        <_>
          11 9 1 1 2.</_></rects>
      <tilted>0</tilted></_>
    <_>
      <rects>
        <_>
          11 6 4 4 -1.</_>
        <_>
          10 7 4 2 2.</_></rects>
      <tilted>1</tilted></_>
    <_>
      <rects>
        <_>
          11 7 3 4 -1.</_>
        <_>
          12 7 1 4 3.</_></rects>
      <tilted>0</tilted></_>
    <_>
      <rects>
        <_>
          11 8 2 4 -1.</_>
        <_>
          11 8 1 2 2.</_>
        <_>
          12 10 1 2 2.</_></rects>
      <tilted>0</tilted></_>
    <_>
      <rects>
        <_>
          11 9 2 2 -1.</_>
        <_>
          11 9 1 1 2.</_>
        <_>
          12 10 1 1 2.</_></rects>
      <tilted>0</tilted></_>
    <_>
      <rects>
        <_>
          11 11 1 6 -1.</_>
        <_>
          11 11 1 3 2.</_></rects>
      <tilted>1</tilted></_>
    <_>
      <rects>
        <_>
          12 5 2 6 -1.</_>
        <_>
          12 5 1 3 2.</_>
        <_>
          13 8 1 3 2.</_></rects>
      <tilted>0</tilted></_>
    <_>
      <rects>
        <_>
          12 8 2 3 -1.</_>
        <_>
          13 8 1 3 2.</_></rects>
      <tilted>0</tilted></_>
    <_>
      <rects>
        <_>
          12 8 18 9 -1.</_>
        <_>
          18 8 6 9 3.</_></rects>
      <tilted>0</tilted></_>
    <_>
      <rects>
        <_>
          12 18 1 4 -1.</_>
        <_>
          12 18 1 2 2.</_></rects>
      <tilted>1</tilted></_>
    <_>
      <rects>
        <_>
          13 9 1 10 -1.</_>
        <_>
          13 9 1 5 2.</_></rects>
      <tilted>1</tilted></_>
    <_>
      <rects>
        <_>
          13 9 12 2 -1.</_>
        <_>
          13 10 12 1 2.</_></rects>
      <tilted>0</tilted></_>
    <_>
      <rects>
        <_>
          13 10 1 10 -1.</_>
        <_>
          13 10 1 5 2.</_></rects>
      <tilted>1</tilted></_>
    <_>
      <rects>
        <_>
          15 2 6 20 -1.</_>
        <_>
          17 2 2 20 3.</_></rects>
      <tilted>0</tilted></_>
    <_>
      <rects>
        <_>
          15 11 2 2 -1.</_>
        <_>
          16 11 1 2 2.</_></rects>
      <tilted>0</tilted></_>
    <_>
      <rects>
        <_>
          15 12 1 3 -1.</_>
        <_>
          15 13 1 1 3.</_></rects>
      <tilted>0</tilted></_>
    <_>
      <rects>
        <_>
          15 13 3 1 -1.</_>
        <_>
          16 13 1 1 3.</_></rects>
      <tilted>0</tilted></_>
    <_>
      <rects>
        <_>
          16 9 4 2 -1.</_>
        <_>
          16 9 2 1 2.</_>
        <_>
          18 10 2 1 2.</_></rects>
      <tilted>0</tilted></_>
    <_>
      <rects>
        <_>
          16 9 6 2 -1.</_>
        <_>
          19 9 3 2 2.</_></rects>
      <tilted>0</tilted></_>
    <_>
      <rects>
        <_>
          16 11 3 2 -1.</_>
        <_>
          17 11 1 2 3.</_></rects>
      <tilted>0</tilted></_>
    <_>
      <rects>
        <_>
          16 13 4 1 -1.</_>
        <_>
          17 13 2 1 2.</_></rects>
      <tilted>0</tilted></_>
    <_>
      <rects>
        <_>
          16 15 4 4 -1.</_>
        <_>
          16 15 2 2 2.</_>
        <_>
          18 17 2 2 2.</_></rects>
      <tilted>0</tilted></_>
    <_>
      <rects>
        <_>
          17 0 3 22 -1.</_>
        <_>
          17 11 3 11 2.</_></rects>
      <tilted>0</tilted></_>
    <_>
      <rects>
        <_>
          17 9 2 6 -1.</_>
        <_>
          17 9 1 3 2.</_>
        <_>
          18 12 1 3 2.</_></rects>
      <tilted>0</tilted></_>
    <_>
      <rects>
        <_>
          17 10 2 2 -1.</_>
        <_>
          17 11 2 1 2.</_></rects>
      <tilted>0</tilted></_>
    <_>
      <rects>
        <_>
          17 10 4 2 -1.</_>
        <_>
          17 11 4 1 2.</_></rects>
      <tilted>0</tilted></_>
    <_>
      <rects>
        <_>
          17 13 3 1 -1.</_>
        <_>
          18 13 1 1 3.</_></rects>
      <tilted>0</tilted></_>
    <_>
      <rects>
        <_>
          18 8 2 2 -1.</_>
        <_>
          18 8 1 1 2.</_>
        <_>
          19 9 1 1 2.</_></rects>
      <tilted>0</tilted></_>
    <_>
      <rects>
        <_>
          18 10 3 2 -1.</_>
        <_>
          19 10 1 2 3.</_></rects>
      <tilted>0</tilted></_>
    <_>
      <rects>
        <_>
          19 2 2 14 -1.</_>
        <_>
          20 2 1 14 2.</_></rects>
      <tilted>0</tilted></_>
    <_>
      <rects>
        <_>
          19 7 2 6 -1.</_>
        <_>
          19 7 1 3 2.</_>
        <_>
          20 10 1 3 2.</_></rects>
      <tilted>0</tilted></_>
    <_>
      <rects>
        <_>
          19 10 2 3 -1.</_>
        <_>
          18 11 2 1 3.</_></rects>
      <tilted>1</tilted></_>
    <_>
      <rects>
        <_>
          19 11 4 1 -1.</_>
        <_>
          20 11 2 1 2.</_></rects>
      <tilted>0</tilted></_>
    <_>
      <rects>
        <_>
          19 11 2 3 -1.</_>
        <_>
          18 12 2 1 3.</_></rects>
      <tilted>1</tilted></_>
    <_>
      <rects>
        <_>
          19 13 1 2 -1.</_>
        <_>
          19 14 1 1 2.</_></rects>
      <tilted>0</tilted></_>
    <_>
      <rects>
        <_>
          19 13 3 6 -1.</_>
        <_>
          20 15 1 2 9.</_></rects>
      <tilted>0</tilted></_>
    <_>
      <rects>
        <_>
          19 13 1 9 -1.</_>
        <_>
          19 16 1 3 3.</_></rects>
      <tilted>0</tilted></_>
    <_>
      <rects>
        <_>
          19 13 3 3 -1.</_>
        <_>
          20 14 1 3 3.</_></rects>
      <tilted>1</tilted></_>
    <_>
      <rects>
        <_>
          19 14 2 4 -1.</_>
        <_>
          19 14 1 2 2.</_>
        <_>
          20 16 1 2 2.</_></rects>
      <tilted>0</tilted></_>
    <_>
      <rects>
        <_>
          20 10 2 1 -1.</_>
        <_>
          21 10 1 1 2.</_></rects>
      <tilted>0</tilted></_>
    <_>
      <rects>
        <_>
          20 10 3 1 -1.</_>
        <_>
          21 11 1 1 3.</_></rects>
      <tilted>1</tilted></_>
    <_>
      <rects>
        <_>
          20 10 2 2 -1.</_>
        <_>
          21 10 1 2 2.</_></rects>
      <tilted>0</tilted></_>
    <_>
      <rects>
        <_>
          20 10 3 7 -1.</_>
        <_>
          21 10 1 7 3.</_></rects>
      <tilted>0</tilted></_>
    <_>
      <rects>
        <_>
          20 11 2 1 -1.</_>
        <_>
          21 11 1 1 2.</_></rects>
      <tilted>0</tilted></_>
    <_>
      <rects>
        <_>
          20 12 3 5 -1.</_>
        <_>
          21 13 1 5 3.</_></rects>
      <tilted>1</tilted></_>
    <_>
      <rects>
        <_>
          20 12 2 3 -1.</_>
        <_>
          20 13 2 1 3.</_></rects>
      <tilted>0</tilted></_>
    <_>
      <rects>
        <_>
          20 13 2 1 -1.</_>
        <_>
          21 13 1 1 2.</_></rects>
      <tilted>0</tilted></_>
    <_>
      <rects>
        <_>
          20 13 2 2 -1.</_>
        <_>
          21 13 1 2 2.</_></rects>
      <tilted>0</tilted></_>
    <_>
      <rects>
        <_>
          20 15 2 1 -1.</_>
        <_>
          21 15 1 1 2.</_></rects>
      <tilted>0</tilted></_>
    <_>
      <rects>
        <_>
          20 16 2 1 -1.</_>
        <_>
          21 16 1 1 2.</_></rects>
      <tilted>0</tilted></_>
    <_>
      <rects>
        <_>
          20 17 2 1 -1.</_>
        <_>
          21 17 1 1 2.</_></rects>
      <tilted>0</tilted></_>
    <_>
      <rects>
        <_>
          21 8 1 6 -1.</_>
        <_>
          21 10 1 2 3.</_></rects>
      <tilted>0</tilted></_>
    <_>
      <rects>
        <_>
          21 9 1 2 -1.</_>
        <_>
          21 10 1 1 2.</_></rects>
      <tilted>0</tilted></_>
    <_>
      <rects>
        <_>
          21 10 3 1 -1.</_>
        <_>
          22 11 1 1 3.</_></rects>
      <tilted>1</tilted></_>
    <_>
      <rects>
        <_>
          21 11 2 1 -1.</_>
        <_>
          22 11 1 1 2.</_></rects>
      <tilted>0</tilted></_>
    <_>
      <rects>
        <_>
          21 11 1 4 -1.</_>
        <_>
          21 12 1 2 2.</_></rects>
      <tilted>0</tilted></_>
    <_>
      <rects>
        <_>
          21 11 3 8 -1.</_>
        <_>
          22 12 1 8 3.</_></rects>
      <tilted>1</tilted></_>
    <_>
      <rects>
        <_>
          21 12 3 1 -1.</_>
        <_>
          22 13 1 1 3.</_></rects>
      <tilted>1</tilted></_>
    <_>
      <rects>
        <_>
          21 12 2 4 -1.</_>
        <_>
          21 13 2 2 2.</_></rects>
      <tilted>0</tilted></_>
    <_>
      <rects>
        <_>
          21 13 2 1 -1.</_>
        <_>
          22 13 1 1 2.</_></rects>
      <tilted>0</tilted></_>
    <_>
      <rects>
        <_>
          21 13 2 2 -1.</_>
        <_>
          21 14 2 1 2.</_></rects>
      <tilted>0</tilted></_>
    <_>
      <rects>
        <_>
          21 14 2 2 -1.</_>
        <_>
          22 14 1 2 2.</_></rects>
      <tilted>0</tilted></_>
    <_>
      <rects>
        <_>
          21 16 2 1 -1.</_>
        <_>
          22 16 1 1 2.</_></rects>
      <tilted>0</tilted></_>
    <_>
      <rects>
        <_>
          21 17 2 1 -1.</_>
        <_>
          22 17 1 1 2.</_></rects>
      <tilted>0</tilted></_>
    <_>
      <rects>
        <_>
          22 9 2 1 -1.</_>
        <_>
          22 9 1 1 2.</_></rects>
      <tilted>1</tilted></_>
    <_>
      <rects>
        <_>
          22 9 2 2 -1.</_>
        <_>
          22 9 2 1 2.</_></rects>
      <tilted>1</tilted></_>
    <_>
      <rects>
        <_>
          22 10 3 8 -1.</_>
        <_>
          23 11 1 8 3.</_></rects>
      <tilted>1</tilted></_>
    <_>
      <rects>
        <_>
          22 11 1 2 -1.</_>
        <_>
          22 11 1 1 2.</_></rects>
      <tilted>1</tilted></_>
    <_>
      <rects>
        <_>
          22 11 2 2 -1.</_>
        <_>
          22 11 1 2 2.</_></rects>
      <tilted>1</tilted></_>
    <_>
      <rects>
        <_>
          22 11 3 2 -1.</_>
        <_>
          23 12 1 2 3.</_></rects>
      <tilted>1</tilted></_>
    <_>
      <rects>
        <_>
          22 12 3 1 -1.</_>
        <_>
          23 13 1 1 3.</_></rects>
      <tilted>1</tilted></_>
    <_>
      <rects>
        <_>
          22 12 2 2 -1.</_>
        <_>
          23 12 1 2 2.</_></rects>
      <tilted>0</tilted></_>
    <_>
      <rects>
        <_>
          22 15 2 2 -1.</_>
        <_>
          22 15 1 2 2.</_></rects>
      <tilted>1</tilted></_>
    <_>
      <rects>
        <_>
          22 16 2 1 -1.</_>
        <_>
          23 16 1 1 2.</_></rects>
      <tilted>0</tilted></_>
    <_>
      <rects>
        <_>
          22 16 3 1 -1.</_>
        <_>
          23 17 1 1 3.</_></rects>
      <tilted>1</tilted></_>
    <_>
      <rects>
        <_>
          22 16 2 2 -1.</_>
        <_>
          23 16 1 2 2.</_></rects>
      <tilted>0</tilted></_>
    <_>
      <rects>
        <_>
          23 9 1 3 -1.</_>
        <_>
          22 10 1 1 3.</_></rects>
      <tilted>1</tilted></_>
    <_>
      <rects>
        <_>
          23 9 1 4 -1.</_>
        <_>
          23 9 1 2 2.</_></rects>
      <tilted>1</tilted></_>
    <_>
      <rects>
        <_>
          23 9 3 3 -1.</_>
        <_>
          24 10 1 3 3.</_></rects>
      <tilted>1</tilted></_>
    <_>
      <rects>
        <_>
          23 14 2 1 -1.</_>
        <_>
          24 14 1 1 2.</_></rects>
      <tilted>0</tilted></_>
    <_>
      <rects>
        <_>
          23 15 3 2 -1.</_>
        <_>
          24 16 1 2 3.</_></rects>
      <tilted>1</tilted></_>
    <_>
      <rects>
        <_>
          24 3 1 8 -1.</_>
        <_>
          24 3 1 4 2.</_></rects>
      <tilted>1</tilted></_>
    <_>
      <rects>
        <_>
          27 10 3 10 -1.</_>
        <_>
          27 10 3 5 2.</_></rects>
      <tilted>1</tilted></_></features></cascade>
</opencv_storage>
